3130
5680
-5490
1460
4410
2390
-2050
5100
-190
2990
-1170
-3660
-5180
8130
2850
-2000
4840
7050
-6890
4080
6620
-6590
2320
-3140
-550
-2190
-4420
5350
4310
-6670
860
-4710
3030
6390
4450
3270
-4380
-5270
30
-2640
-90
-2430
-2450
4590
480
-380
7100
-810
-4400
5870
-210
2360
3010
-5330
4650
-5570
6280
-3730
-2660
-740
-3710
-4690
3480
-3490
-1650
-1830
2510
-1570
-1170
3760
-2110
-6530
-7780
-830
-2890
-6580
2340
-3850
-2040
-7390
-1990
-5670
-3660
-1770
-6120
-6780
-7920
-6930
1790
480
1910
7880
-5880
4700
5290
-540
-6720
-4430
-270
4680
-3240
-4840
-7080
5140
3770
5070
-5900
-2250
800
4110
-4620
300
-3140
1020
-5290
-6360
-2170
-4020
-6590
4120
7090
4370
7400
6340
6060
7180
-1300
-5840
-2620
-7410
-8160
-6510
1230
7670
2880
-4510
-3900
1840
-4790
-7790
2500
5440
4020
3480
-5650
4690
-5650
550
4670
-7540
2070
3200
520
-7070
1900
-20
7060
-5300
-2910
-5440
8160
-5160
1490
7430
-5640
-5610
-7370
5750
-5060
6760
-200
-2160
-6230
-1610
-7760
2100
-7530
-1010
4250
1850
-2040
-7530
8100
3600
-1700
5210
1070
6900
7300
7540
800
7700
2450
7590
320
5660
-3410
-410
8170
5860
4340
-2020
-6280
4840
3450
6440
3900
-4850
530
2730
-8160
8060
8050
1720
-1020
-8080
7720
-420
7020
-5960
-7670
-710
-4260
-3680
-1810
-4190
-3240
-3800
-1850
1250
5590
6850
-5650
7700
5330
2350
5720
-3970
5620
230
610
5320
5780
2550
-7600
3560
-8100
4100
-7740
-1780
4510
-5870
460
7490
-100
-1700
-5050
-1090
5580
-440
-3380
4200
6020
5970
-5610
-8200
-6450
-5420
5720
3540
2330
-4250
4730
-2790
7730
3360
-5230
1840
-8170
2960
-5820
-7850
3350
-160
5580
80
80
-4340
-5510
4360
-1010
-6990
-7720
1270
-2650
-7820
-6530
5360
2430
-570
4370
4100
6360
3860
1670
1160
4780
-8150
-4350
700
-4090
4290
4330
-7230
7270
-4360
690
-1850
4170
5240
5440
2370
-4780
-6360
-4400
7060
-2860
3990
-4160
7510
3980
-8010
-2570
-5030
-7020
-460
-2510
5690
6120
-380
2850
990
-4970
4800
-4550
-3600
-1490
7370
-2610
-3570
-2530
-3630
3600
7650
1830
-620
-4470
2900
-2720
4910
3700
4630
-1510
2550
1680
-4740
1740
6840
2360
-340
5850
-7650
-5460
-4050
4090
4950
-3100
-210
2630
6580
-3230
-6780
3810
5950
1060
170
2890
4290
-1590
60
5410
-7160
5610
3820
-2980
6490
-3480
-710
-3800
-3790
-6220
-170
7940
6480
5430
110
8010
-7500
8170
3360
670
4060
570
-5060
5090
1100
-7460
1320
60
5500
-750
6210
-1670
-3200
6720
690
2130
-810
-2080
1490
-5710
8020
400
-2450
-5850
-5450
-7720
-4760
7340
-80
-670
-1580
7000
3050
3160
6120
-6350
-4030
-1140
-2010
-2140
570
-2940
6250
-2230
-6230
4560
-1180
4560
-1100
-1810
630
-3900
-2650
-4540
5640
6030
-1330
3780
770
-7250
-4600
-6840
6190
-6330
-360
-530
860
4770
-7410
-3130
310
2910
-6540
-990
-1570
-6140
-7450
-3140
2910
-7630
-1390
740
-7190
2180
3700
-6070
-10
560
-2440
-3480
-5920
4790
-2200
-6510
4800
-1740
6720
5670
5170
940
5780
910
6960
2430
2220
-4660
-2660
2200
7790
3800
-1010
-3030
7560
4890
-4990
-240
4540
-1180
-6970
7870
5270
6740
-4810
-2940
2550
2110
-6900
6320
6080
1370
7460
-3360
930
120
4600
-7080
-4760
2120
-2830
390
-1650
-1770
6760
4350
3260
-110
7790
-7590
5680
-7190
790
4730
-8000
620
-2660
-4270
5610
-4590
6170
7220
-70
-3160
440
5890
-5330
3730
-2360
7460
-3250
-1550
-4800
-2330
-2080
4180
-8040
830
1360
-7690
1940
-6020
920
3290
3350
5210
-6800
-2380
-5840
-2400
4620
110
-2610
4310
490
2680
6570
540
-6890
4230
4460
3610
1270
7450
-5180
-3500
-1920
4100
-1290
-3200
5260
-1430
30
-3000
-920
5950
-2750
-6190
7370
1210
5980
-7870
5810
2450
-4780
-5770
-4920
-830
-920
660
-3130
4810
-310
-3300
-1760
1670
3350
-5340
5500
2420
-7010
-5500
6050
-5790
3270
4880
6510
4570
-1330
-2640
5340
-7880
5600
-2030
5070
7880
-7440
-7690
290
5960
-1610
3910
-1730
-1310
-2290
150
-6290
-490
-7720
7530
1470
2530
2530
6270
-7910
5500
-5650
6620
-3130
-7430
5990
-6370
-7420
-190
1380
-1980
-8110
6160
1490
-5760
3440
6910
1230
5870
-1540
4980
4110
-740
5990
-2220
7140
-5420
6800
540
-50
3190
-6870
1060
-5430
-6020
8140
-3530
290
-3350
-3120
6490
-1870
3300
-1580
-2170
5640
160
-10
-8030
5820
-4800
-820
7070
7110
-2270
-3330
-6450
4670
6170
-1380
4410
-1130
890
6430
-6920
-6920
540
6530
4230
5600
5730
-1150
-4500
-6560
4640
-7020
6900
7570
-7600
3780
3090
4950
4870
-1050
-470
830
4340
5870
5320
620
410
4030
-5240
-1190
4340
-6360
1140
4200
4250
4080
7350
4320
-4780
4550
730
-7520
1470
-2300
-5810
5890
4010
3960
8000
-780
8180
-4890
-5010
-6190
-1830
7120
5090
4690
4140
6600
6550
5920
-830
1290
6270
2720
3630
4490
-330
6280
1490
-4060
780
7770
-3420
7970
1950
-3440
5910
-6780
5140
7050
-5360
6400
-7490
7400
3600
-5110
3080
-6930
2720
-770
-3420
-4500
4850
-2310
3330
4680
-3660
-1070
2390
3290
-2550
-5660
4010
-190
390
600
530
1940
-8150
-1380
-2890
4870
-6340
-180
-1610
-6040
-4990
860
-7520
-1200
-4130
3240
6110
7510
6000
-7190
5380
-4750
1910
-2660
2120
7350
-7600
-5500
3630
4590
20
5870
-7690
-7520
4130
-5930
-690
3220
2830
-4070
7940
-7750
-5080
6580
-5800
-820
-2030
-5070
-1280
-4080
-740
7290
-2290
2500
-4090
-2030
4120
-4150
-5670
6490
-7670
2490
-6590
3120
3830
5120
-6710
4200
-180
-2670
7910
7220
3880
-4340
-410
5110
-8140
-4770
7500
-2690
3020
-4350
210
-5520
-1280
-3200
6500
-6960
-4130
-1260
1600
3800
1210
4250
940
1030
7870
5440
-30
8130
-1420
-2290
5350
2400
1430
-3340
-970
5270
-6540
240
420
4410
-5300
6630
-4270
-5740
3050
-3000
-750
-6210
930
-7060
7340
2550
-2460
7210
3700
-3810
4950
-5030
4240
-210
30
-1400
7360
-920
-2060
-4800
-5760
-4040
3870
1460
1810
-2010
-5420
-4770
-1700
-5690
-7760
-3020
3350
-7850
1750
1010
2100
-8100
6280
710
-2030
-5010
-1810
2660
-6710
4280
740
7580
-1070
-3320
-6090
-4540
-3590
-7330
-6430
-2110
4480
-2980
-910
-7000
1920
-3780
-2350
5070
2810
900
-5460
-8070
910
50
5610
3690
-2270
3900
-7810
-4530
-4540
5590
-4200
-5150
-1540
1460
740
-5160
-7960
3520
-3540
-8080
-3310
7710
-2170
-1320
-5790
7960
6830
-5320
-7200
3600
6180
770
210
7620
-1490
5510
3950
5620
6030
-5230
-4530
8000
6590
-5400
1140
-4140
-2520
1970
-6680
-6320
-2720
730
-1820
-3280
-6270
-7980
-5430
5490
-3340
7560
4200
4720
8180
7630
80
-2390
5620
6110
5060
-2850
-6000
-7490
5690
5240
3980
-3760
390
1930
-2380
-4210
4340
3950
7430
540
6280
4440
2780
-1450
-7940
-2160
4860
6130
-7950
-1890
-5290
-7910
6230
3100
1050
3670
-6510
-3710
-2820
1430
-5350
-140
2060
1600
2730
4140
-7130
5900
-2980
270
-820
-5190
1770
-7480
-6780
570
6060
5060
4250
-6990
5630
-5380
4400
6100
7390
1230
2730
-3940
5580
4050
7930
-1070
3290
-6950
-2540
-6760
6060
-6010
210
-1280
-3300
6230
790
7070
5190
-8000
3320
-5370
-2450
-6020
-2930
300
-1440
3950
-5840
7120
-470
-2620
-250
3490
-6280
6790
4930
2190
80
7050
-4720
7330
-3220
6870
910
7580
1200
-5360
-2240
-5230
2170
4180
1850
4950
2140
7830
7800
-6540
-2840
-3330
7610
5170
5100
-1230
-5070
-1300
4020
-3340
5350
7930
5880
6020
2900
6290
5620
-4640
4380
-1370
-1110
-4540
6140
3940
-3050
-3440
2800
3270
2960
-2660
290
3920
-7520
7560
2350
530
-5190
-6470
6390
-6910
2150
-2970
560
1300
-580
-220
1830
2030
-2810
-6420
-6990
-3200
6040
2520
5680
-5700
2270
750
-8090
-1540
7710
310
7450
5720
-5460
-5320
-2780
-7580
-380
-6520
5160
-6070
700
2910
-4630
-8020
2320
-3410
-2570
3090
8040
-5800
7770
4130
-6170
-6170
-5560
2810
7990
-6940
-5970
-4030
-4460
-7730
-1510
3190
950
-2110
3150
520
2950
-5980
-3460
-7150
-5990
4300
-7330
-980
-3890
-130
-6440
700
-1750
3040
5360
-1780
-1170
2100
7810
1600
-5390
-1960
5880
-3280
-8040
-2510
-1660
-6250
3290
-5760
-6080
5750
4780
-2390
7900
5950
-5220
7440
4310
-4290
8050
1070
-2080
2500
-1120
-6800
6300
450
-2100
-1320
4870
2030
-6860
-6490
7670
5160
-5850
-6190
2500
-1890
-1530
-7640
6770
4060
-5420
-3740
-7280
3110
1890
5020
3910
1630
-7530
-3370
7260
-5730
4420
3750
-5690
7190
7850
5540
5480
6190
5200
-4050
-5240
-1710
-5150
-3200
-5280
7230
3890
6420
7520
4800
5860
5620
3450
430
-5900
7300
6760
5850
1580
7380
200
7090
6690
-1950
2870
1370
3070
-5700
7120
-7960
-900
5540
-3590
-1820
-7720
-6240
940
-7540
6280
6830
-2570
350
-7340
-3890
7250
5030
2780
5790
1780
-2330
-6560
4480
5410
6390
-3680
-6680
-2880
930
-4210
610
4820
7880
-3110
7280
-620
7110
3420
-5800
-1880
750
2550
-4800
-2040
1950
3010
-7370
780
-7030
4970
2910
-1820
-7310
-7110
-4480
1180
7620
6410
-5900
2450
-5110
1780
1560
-1610
-3290
-4210
-4160
-1440
4780
-3980
1890
-620
6610
-730
5980
3790
-5390
-4760
-1590
-8100
7270
-1570
-2980
7580
6200
-3220
7950
-7530
-3760
360
7180
1980
380
3590
1310
-1960
-80
-5490
3900
-5370
8060
-240
-4730
480
-1690
5740
-7360
2620
7620
-4060
-4520
3120
-1010
-6860
-7040
-6780
-3460
8170
2510
-5270
5350
1500
-360
860
7980
4490
330
-5070
4660
1700
7030
-5310
-4990
6690
2260
5460
7880
-340
520
-6270
1300
-7140
2950
-1120
7890
4430
7460
4970
-4620
460
-2760
6640
-7250
4610
-5120
-3120
1930
5750
6450
1250
470
-6230
1440
-6310
-3760
-70
3270
-3510
5950
-7390
3440
-5730
-800
1690
-3150
-4940
4000
-4150
3620
5690
4580
-4880
4090
2820
-810
-5770
-6940
-130
-2040
2530
-570
-4590
-1170
7150
70
3880
4180
5600
5180
-6640
3750
5920
6850
6320
-100
3880
6200
-2190
1360
-6620
5090
2910
1660
1390
4710
4210
5010
1030
-7900
-4320
-3670
4470
-6020
-6760
260
3730
-5730
3000
4000
-2650
-7280
-1810
-5620
1340
6790
-3900
4170
-6850
2350
4640
3240
-1710
3430
3960
6930
-2690
2170
8180
-2090
-2810
6770
40
4830
7470
6820
2690
-1160
-5330
-4710
-6960
2990
-2250
7870
380
2560
7170
-490
-4460
1080
-6980
4010
6920
-3270
5160
-3860
-7030
-40
-2890
2430
-1370
-1640
-7870
5570
6030
450
-1260
1330
2600
1950
2950
-3970
-500
4050
720
1720
1090
4330
60
-380
2050
3720
660
670
980
3330
7150
7040
-670
6880
1750
1380
1470
3260
-580
1230
-6660
6700
3890
7920
20
4300
2240
4340
700
-330
5400
5490
7800
3270
1670
-2340
-6390
-3280
790
-4820
-5780
-6660
-3630
3450
-740
-7940
1120
3980
870
4470
-3890
2100
-1390
2740
-8130
2970
-460
-1680
-2590
-7910
7510
-7520
540
2980
-960
-5920
-4440
-3180
-5140
-7210
1300
650
3500
4380
-640
-4230
-3030
8130
-1320
3810
-3570
6840
-6930
8100
5050
-5160
4680
3260
6120
6320
280
-3980
-2510
3040
3430
7200
-7640
-7150
7300
3480
-8070
4080
-890
-4830
5390
-80
2870
6190
-6290
2300
-7680
5890
6030
-7580
-7670
6180
4770
-2840
1540
2360
6310
-8190
-2380
5890
7390
-3210
8170
580
4730
7470
-750
-280
710
-5700
-2950
20
2190
-2270
1880
170
5260
-6250
3250
-770
-2600
4070
-730
-640
6400
-6660
3940
-7780
-6240
-7930
5060
6770
-6320
620
5880
-5120
-790
-7420
1690
6400
-4820
-7500
-1200
2560
-1120
-10
3410
7410
2960
-6320
5490
7720
7680
-2990
-7060
10
7300
3510
-120
-7400
4010
1840
4130
-7760
1490
-5190
6310
4070
6490
-660
2500
5280
-2150
-790
6010
-3750
-4540
-6000
-7750
7530
2860
-5900
6590
-1440
3490
390
-2080
-4530
-6310
7200
7110
-6120
-500
7900
-3080
7130
-850
4750
-5320
-7570
-5290
50
2770
-3910
-1690
-2470
-3370
-4280
-1430
6620
2470
-2840
500
6360
-5740
2970
-5220
5190
-7280
8130
7540
-6250
5770
6750
8020
980
-6370
-1700
4580
1120
1090
-3040
8030
6800
-4490
5970
3810
1380
60
7060
2100
-2910
-230
6280
2870
740
-7550
-5450
-4350
4160
5460
4360
-3770
710
3460
350
-7610
4880
-1120
-3130
-7930
5350
3220
-6650
-2130
-1920
1960
5430
3250
2520
6150
-1400
-2990
1710
-5380
-6170
7610
-4390
-6720
-6000
5130
-6900
5600
-2580
-4480
-5780
7910
-1860
5120
740
-6480
-6640
-5340
-4120
6970
5920
370
4680
-5190
3110
6380
8180
2500
-5540
-990
-110
0
-6660
-2840
450
-6750
1980
-8170
5210
2300
5030
-7890
4270
960
4000
-4120
-3230
-660
-5380
-2200
-1620
3310
5400
-6080
-550
-190
-7770
5120
-4990
-8110
930
-1700
-3500
1140
-6830
-3570
6800
5140
-5400
2950
1200
-1460
4690
-6920
5670
-3520
6180
7710
-760
-6030
-5840
6210
-4210
5490
-1240
2080
-700
-680
-6590
-6440
-4340
-930
2190
400
-7980
-5860
7240
4880
3240
-5380
-2130
6690
-6840
7450
-6630
3940
-6300
-5470
1100
-6560
-5410
6390
6160
-4870
4080
5090
3820
-6520
7030
960
-1000
2820
-750
2490
4850
4720
6260
-1570
-4460
-250
-3230
-3680
-220
-540
7440
-1220
470
-6690
-4800
8130
4190
-340
-4000
-2240
1990
1370
-3950
-5800
-3900
2200
7260
-2770
1340
3810
6260
-1660
5340
-1620
5870
1130
3360
-4230
-5280
7110
2330
4810
2900
-7980
5460
4440
-3290
5010
-4230
-5200
-5210
-870
3020
6510
-3680
1920
-3450
-3170
-1640
2030
5770
8120
-5860
2880
1750
-6540
-3670
-3820
-2050
5960
-4270
1210
-430
-3540
4530
-3310
680
-1980
-870
260
-5760
-7810
8110
2010
2140
5690
5510
-4680
7710
-2790
5370
4270
4470
-1600
4930
340
3190
-240
-1530
7210
6600
7870
4760
3880
7120
220
5230
7250
3070
-2900
7530
-3040
-7550
-4540
1830
-390
-5770
-6080
4590
3010
3140
1230
-3180
2880
4630
1820
-7850
4900
-3570
-690
2250
-2650
-2310
-4410
6430
-4050
1470
-1290
4390
-3980
-2960
7910
7970
-880
-5320
-1600
5740
650
-5070
-6310
-2590
2200
7260
2810
-3980
1400
-4490
-8030
-2730
7750
6370
4480
-1660
-2990
3190
5930
1930
-5390
-2900
6390
6160
-5570
-7020
-6270
-1640
7730
-3440
6010
-5770
-4800
-6990
4520
-7320
-7200
7930
1110
1590
-5180
6190
6930
5410
2600
2480
6020
-160
2040
-2760
-5280
-5670
-920
3330
6150
1700
3340
2600
-2920
-1310
-70
-5990
-550
260
-7410
-6740
-460
5900
-8030
1350
-4220
7260
-3390
-210
-5450
7100
6030
-6320
-4490
2520
2280
1910
-1360
5810
2810
4430
-7460
-8120
2750
3920
-5780
-90
-3840
3710
3300
5830
5790
4760
-7700
-5400
3530
4330
-710
3200
1280
6710
5350
5400
-4910
4250
610
6500
7760
4380
-3050
3550
350
-230
3410
4190
-4160
-1840
-5540
-1850
4080
4180
2060
-3670
-7650
7030
-190
2330
-2720
3140
-5960
-3530
4770
2530
490
2960
3810
1990
230
-4580
-1200
5590
-3850
-860
-7530
710
6930
-2710
-3300
6560
4740
1520
-4520
-7820
-8130
4020
-5790
-7230
-4800
-2350
-5750
-6850
-7230
2860
-2410
-1510
-7050
-7860
5550
1140
-2460
7880
5490
6950
-2430
780
2300
4080
5740
-7790
550
-1580
3080
-530
2930
-1450
-4390
5610
3750
-3380
-340
-6860
-1630
7480
4750
2420
7620
2120
-2600
-4280
-3520
-200
3580
-7050
2390
-7390
-1330
6070
5080
3660
-2660
7040
4920
-3370
5330
-560
6660
5560
3430
-5600
1300
-1490
6840
7760
3090
5460
-4540
1010
8120
6250
-2230
-6700
-1290
-2780
-1450
1630
360
6750
-7180
2500
-4640
4080
2410
4540
3670
-1990
3750
8020
5760
4720
6560
7600
5920
1260
500
6560
4290
-3310
-3140
-5980
4220
-580
-1610
8150
6470
-5760
5230
-6530
7410
-3000
-3440
1160
-6720
-4650
6160
3090
8140
2010
-7050
-8100
3760
-1790
4150
3910
770
-2140
-1260
-3570
-8030
7450
-1820
-2270
590
5620
-2920
7710
8150
3570
6780
7690
2380
4020
5840
7410
2970
6690
-2050
830
-4330
-3360
750
-3640
3090
1820
2840
6680
-7930
7750
-4670
-5160
1230
-4730
510
7590
-6330
-350
-6130
3470
2980
4430
6510
-6280
-310
-1190
490
3960
-5780
-5060
-7750
-100
-440
4030
5790
-5800
2710
-3530
-6870
2400
-6270
-80
2970
1340
4980
-5390
-2550
4460
390
-5170
-2610
4890
-1390
-1080
7400
6760
-6790
1580
-7700
-230
2750
1380
5060
-3010
4790
5400
5190
-1040
-1640
-3390
2550
1070
-6650
5440
-710
2020
510
-5180
-3270
-4330
-4600
6470
3650
7360
-7460
-7760
4180
-1820
1080
6770
-970
-770
-8030
-140
6880
3320
7990
-7230
5020
7210
2430
5960
5200
-4970
7160
1090
-2090
2450
-410
3270
-7900
-3260
5500
-1870
-4960
-3530
5830
7900
6750
7050
5150
-6530
2800
-4520
5280
-8180
4370
4040
4050
-1420
2190
8110
-1250
6090
4760
-710
-1770
-5770
-6680
7480
3720
3240
10
-7870
1990
-5940
-6830
5900
3250
2580
-6900
-490
-5530
8100
7300
-2450
-7640
8000
-5960
-80
7950
2600
-2330
-7190
-4790
3440
-2380
280
-4830
-90
1090
6300
-4000
5900
-6960
-7610
7400
6940
7380
-5330
-480
5330
1660
-6650
5770
-4010
-5460
5530
-1530
6330
4360
-5230
6210
-4930
6750
-3170
6100
3750
3940
-7890
-1740
7050
4110
-6650
-5670
-700
3930
-6600
-1600
260
-6610
140
6510
3400
-6400
-5470
-3380
600
-2890
880
-710
3600
6260
-7360
-4640
-900
-7680
-1640
-6740
-5460
-7270
-6180
-6770
5550
1230
-310
3890
1240
-3110
-3160
-5870
4340
-4170
7790
980
4790
-830
1590
4560
-60
3250
-5320
-7590
-3440
-3400
5970
520
2520
3700
910
-5770
4260
-4100
-1180
6590
-5020
3670
-2780
1960
-6880
-5860
-6900
5350
-4070
2420
4720
5970
-6950
6120
6820
740
-3450
1490
-2370
-470
1540
3240
-6180
-1950
-530
1390
210
-6900
-2460
-6240
-2230
-5320
7800
-650
720
-4430
5570
-7590
-1180
-6240
3930
2200
-810
-8160
-6140
-3070
-7130
6850
870
6400
2790
5710
3170
-3060
1620
-4380
-5180
3890
-1640
-4730
3030
-2170
-6850
-6010
-5800
5830
-800
-3140
1310
5270
-8150
-4690
-2240
2330
4450
-6600
-7170
-7800
-1260
-7120
7310
1740
-2980
-2620
3760
3950
-5220
-3620
-210
6770
200
570
-2470
-6840
5230
-5160
7690
7980
-2880
-720
-4800
-1570
7980
3010
350
3650
5010
4890
-120
-7320
-5330
-3300
5000
5840
-1110
-1750
-2470
-3580
7950
6350
-4020
2340
-2450
-1580
6490
5220
-5810
7170
-5190
-6310
-1470
-5710
-4180
-6600
-2920
-3000
570
-3920
3990
-4600
7890
-6200
1040
-4590
2360
-2580
-430
-530
-930
-4060
-1440
-7660
-5100
1020
-3950
4280
-5320
5660
-2570
2240
-5620
3310
-3670
-3040
1050
-6470
3830
6830
-1590
6430
-3290
-2600
410
-370
5870
6320
-1050
-7990
3580
-420
3680
5800
-7290
-7120
1860
2010
3590
3120
5370
590
-6910
-4730
-3540
-6830
-7040
7370
-460
-2970
7930
3670
3260
6360
4980
130
-2320
5900
-740
8000
-2210
-280
-4090
-2630
-5740
-3560
3940
-7430
-4620
-4350
5340
6450
880
-6210
370
6870
7270
7960
-3750
-7940
3610
-7430
-2370
5600
1080
-1550
4430
3060
1410
-4220
-4430
6440
160
4470
1060
-4980
4150
-3310
-6010
7920
-2330
-1490
590
-4420
-340
980
-4090
-5890
1590
-7450
6650
-7740
3060
-7630
-1360
-1150
-3650
4250
-5800
1390
6410
8130
2890
3280
5050
6170
5720
4690
-3440
-6300
-3860
4910
-4950
8080
-3060
2680
-4350
-860
5310
1920
7940
2990
-5610
4310
5250
-2090
4320
5240
-7670
-2920
-4170
-2990
590
3970
-3130
7560
-6000
-4530
-5490
300
6640
-3780
-1690
-8080
3790
-5360
7920
-3280
-6840
-7720
8010
-520
5900
3720
-1230
3280
-5670
-1620
-7700
6760
-1670
960
6990
6290
-8120
5490
4220
-1740
-7420
6510
330
-3660
6620
1710
5790
-220
-6630
-8110
-7140
4720
-5990
2210
-2890
-760
7350
2210
-4080
6790
3700
-690
6710
6300
7320
-3280
-1560
-7010
-4300
-7320
1360
-620
-5780
6590
1790
-6690
-5060
960
-7610
-5100
3860
3680
7590
3090
6860
-7760
2880
7020
-3470
-4370
-2740
860
3300
-7200
-6490
-3380
7280
-6390
-1520
140
-560
-1340
5300
-3920
-1290
3580
3330
7800
-7520
3920
-5920
-3110
-1810
-3430
-2340
4850
-4530
1240
4160
6070
-4460
-4740
-1560
-5640
-4640
5360
2280
1260
-1010
-4730
-3080
7640
-1340
1130
4150
1170
6950
-1350
3110
-5460
-2040
3140
-2450
-7270
-3840
-2200
-6810
3380
2070
-800
-6160
2080
3220
-1200
-7610
-1420
-2020
-5640
2920
8160
-7490
200
-5250
610
3530
1110
3930
-7720
1820
5890
7920
3690
4130
5640
4280
1230
4270
-7450
-6010
-2250
3160
-480
8150
-5570
-1930
750
5020
7960
-4510
-1980
4490
-4840
-1310
6470
-5630
3670
-2050
6100
7800
-3040
-6470
150
-3060
-480
3420
-7000
2430
3130
1870
6870
2640
3220
2800
-3600
900
-10
3280
-6540
1260
7220
-1650
2920
-4870
-960
-5860
2820
-5330
3490
6140
5270
-8070
2380
-7280
1810
-7640
-5940
2950
270
8000
7380
-550
-7580
-1080
6190
3890
660
-8040
-2810
5620
-5310
-1230
3140
1420
-5040
-450
4100
-5220
7050
4480
-1070
-2830
4520
-800
-5650
-4950
2590
-3160
3330
3380
4730
1250
-3910
2200
-310
7300
-5050
-7610
-7150
-6880
5160
710
3210
5070
-6480
-6260
-1360
1420
8010
6120
6870
5290
-1260
6370
-7900
7740
-8110
6860
3390
-1730
-3410
-6870
3370
7940
-8070
2550
-7560
-4130
4330
2880
-1380
6680
-3110
-1320
1750
-7890
5730
-6110
4260
-4760
-7130
6470
-6760
-6560
-4440
-3660
8090
7970
5120
1190
-3570
7880
2640
-210
-380
-20
-1150
-5550
4260
-720
5060
3800
740
5880
-7110
-4690
-7790
-1200
-3160
2410
3900
-400
3320
-3810
-4160
1810
-1950
-260
-3940
-5430
-3450
2420
-7740
7910
-5130
140
3510
5780
-1980
3010
3540
-210
6320
7420
5620
-7020
-2770
-3080
3800
6890
900
-5730
-1950
430
-310
-360
3660
-4970
1030
900
1930
-6960
710
4570
-4360
-440
-7620
-2780
390
5800
-2100
210
-2340
790
-7670
-6170
5680
-6790
3900
-5310
-7140
7240
-4590
4910
-2600
1440
-8130
7360
-3170
-4530
-810
-6420
770
5470
-3750
3960
-2170
-4230
-2720
-130
-1020
-2940
-1210
-1070
160
-2880
2690
-2500
6510
4660
280
-1910
4790
-7730
830
6050
5570
3020
840
3430
-7800
-7340
-1770
6300
2550
4650
-3130
-5230
5370
6300
-5060
-7040
-2540
-5900
6510
4810
-250
-2590
-5480
-4470
860
4100
-5360
4030
7090
3860
6150
-6570
-830
6630
1400
4860
-270
1550
-3540
-4000
-5700
2550
-2530
-420
4650
6900
-2360
-2140
5950
-4820
1920
-4990
-5730
6220
-7650
-1630
-3780
-550
3450
1920
-630
-1010
1780
-3100
2930
1650
1810
-6140
7720
-1410
4530
-2260
-4720
6500
4780
-2920
-2310
3570
6800
-6530
-2900
-4450
-3960
-1160
-1720
5010
-4770
3590
270
-6320
-4660
-3120
-4710
-2810
-2630
-810
-3940
5150
-8180
730
-1880
5510
3750
7860
-7850
6750
-4940
3510
-5930
-1380
6660
2220
3110
-2670
7810
6210
-4530
-7260
3240
5170
5050
7470
-6130
-2430
6110
4690
-8020
3440
-410
-5170
-6470
1700
1780
-3190
6880
300
-4940
6880
-6050
860
5850
-2180
-6090
-130
3220
-3660
-1910
800
7900
-6250
1410
-3380
6110
7070
-3890
6440
-5000
-7960
7090
-1290
4690
8030
4280
-6890
4290
2200
2350
5600
2880
-3290
-8090
2770
2860
7830
-3390
-4680
2110
7030
-7560
4480
6180
-7020
-5500
6500
-2110
-3800
-6280
-6900
-5490
5910
-980
-1580
6760
260
-4640
830
-6610
5840
3910
2880
2470
-350
-6220
-7590
-3450
4610
-1630
710
3070
-4750
-1300
5390
1460
-4990
2790
-4330
6730
-6170
2380
210
5120
-7450
6250
5530
7660
3060
-930
-6470
-6810
6460
-5890
-7790
-4980
-6210
1740
-2970
-3380
6730
5820
-6690
-4950
-6040
-850
-150
5020
1480
6660
5210
-4980
-7510
-7950
1450
-6660
5090
5760
5220
-3760
-1640
-8030
-710
5540
-2560
-4020
-2490
1050
-3680
4750
5280
3550
-1040
7300
690
2270
-4370
1490
-1860
-2610
-5790
-6910
6190
2380
2420
830
5850
-6720
6370
-1660
300
3490
-1900
2560
-4290
-5920
3790
6530
360
5290
8180
-520
6460
1560
-4200
-7480
-6820
-2500
6160
-7620
-6270
7510
-2430
3580
1120
-5990
-3780
-3920
5300
-7290
2610
-1670
-580
1870
1710
-1650
4400
1050
-1760
-4510
-3420
-4620
-5060
5320
5560
4660
-1130
1810
-3570
630
6940
-3120
860
-10
7960
-2460
-2690
1580
7460
2510
6890
-6930
8000
-4830
2630
-6260
8000
1970
1140
-5080
-5640
-1040
-6690
1840
4230
1980
-4860
-2200
7880
6130
-5930
-5910
-8110
720
-2960
670
-570
3070
4510
-390
5780
-4800
1650
4340
-4060
160
-770
3640
-7540
-1540
4330
-7490
490
-1800
2880
1480
-340
-7880
-8010
4410
2510
-1050
-5410
-2490
-980
7370
5990
-2840
5400
490
4720
-7940
7830
6880
1840
-1880
2490
-4070
-4080
-3440
-5020
7680
3850
2370
6510
1490
-6850
-320
-1190
-2800
4480
1320
-3020
-710
1010
-870
3650
-4530
-3340
2890
-1350
6050
130
-8140
5190
-5630
-1230
6210
7680
2500
-7970
5130
700
140
-3350
5890
3210
-3180
-3670
20
110
-7570
-1540
1630
790
-6860
4470
-4220
4760
7500
-7580
3280
3140
4550
2970
-320
-430
-6120
7630
210
3050
-160
6260
3820
4540
4930
-2580
3160
5200
6160
7080
6990
-7010
4940
-7960
-760
7090
-2610
5650
2200
6020
-6590
-6020
3820
-2530
-2570
7220
-3150
-3710
6830
-6220
7840
-3590
-2330
-6150
4740
6740
6140
4340
-7020
6400
-7560
-3850
-1270
-7360
-1910
-2740
-5900
-590
-5610
8000
-600
-2560
-1640
-5940
3220
-4660
2360
5470
-1290
-1000
-7070
-2430
-1540
-3820
-5580
7160
7590
3710
-7080
1020
-8110
-6700
3180
4390
6970
6420
6230
3720
-4250
-4030
3160
-3530
-690
-4530
-6930
-7240
-5580
-230
-1700
-4160
-6020
-3270
7630
-4530
5070
-4910
6590
4470
7600
-3500
6620
-7330
-5150
5790
-6680
180
3540
3380
4880
230
-1140
5690
4940
-5130
6320
-530
-7160
6280
3010
6980
7900
3590
860
5310
-4400
-2840
3700
-7430
-1730
-1810
3630
-7020
-1060
5030
2940
3950
2640
-6790
7940
-3340
-440
-4390
4960
-6620
5650
-7710
4130
2350
-1170
-890
7550
6800
7560
5490
8150
-4200
1150
6740
-150
2230
6800
-370
900
-6040
2020
-1630
1200
830
-4200
4430
-3180
2660
2230
7470
5470
-3000
3510
7490
-3390
-4870
-5060
5180
7450
3530
7480
-3630
-5370
1450
7910
-8060
-2490
2790
-1520
-440
2360
-5900
-7670
-2630
4950
5810
-6400
3660
-3950
-1440
3470
-7330
-2390
-7380
-8110
6960
-1240
-3380
-2980
1950
210
-6740
-7890
7550
4670
-540
7380
7860
-6650
-7010
-1550
1020
-4630
2590
4150
8020
-3430
2740
3920
-6350
-1100
720
-5950
-3760
6360
2730
7490
-7500
8000
800
-5320
-4710
-3320
-6450
610
-7630
-2880
170
-1600
-7640
5190
-2850
4330
2370
1080
-790
-6540
-1990
780
4330
1970
-2480
-7060
5720
5530
6980
5030
-6760
7620
1460
7650
-3650
470
6410
-3710
1010
-7550
-20
6170
-7040
-1910
-2540
3500
-7840
-4760
-4840
3980
-1940
-6990
-6400
1560
-7950
2580
950
-1900
-3760
-7610
8030
-690
-7580
3390
120
-4850
7680
-7290
3840
-8080
7970
-60
-1010
-8070
6740
7530
-5260
-600
630
-7720
-2170
4800
-6560
3010
3850
-3820
4810
5500
5160
5740
-2770
-2290
4560
6870
-2540
5770
2080
-6720
-2390
-5630
-6780
7900
380
6770
-6500
7070
6210
-3980
6320
-7600
-150
-1820
2950
7030
6290
-1430
-60
6440
5690
5400
-1400
4620
-5030
20
6610
840
2200
-7170
2920
7790
-7520
-3620
-7710
8100
970
8110
-6550
-5370
-3320
6940
-1920
3940
3840
-5770
3700
1430
1280
3430
190
420
4790
5040
1280
3200
2460
-8000
-2720
-1360
-1200
4480
-4560
-7060
2240
-6760
3350
6160
7340
3140
3420
2570
4690
1110
-6600
-3510
7810
-4460
-4750
-4230
3760
1990
2460
7500
-500
-7980
-6700
5900
6450
-1510
-4770
-2040
7010
-3470
-7010
-2840
5180
-2840
710
-5690
-8140
1670
-5520
2100
6720
-3120
-7250
6400
-7140
-4000
6360
-3450
5240
-250
7850
4560
-1350
-1320
-420
7110
6890
4280
-5030
180
-3620
-2220
6550
-3170
-7100
3720
-7850
60
-4140
-3130
-3730
3130
-7500
-7110
3580
-6280
-1000
4460
-2550
3700
-1500
1610
-4160
7310
-5100
-4940
-2880
1760
4230
-3380
-5030
5950
960
-7660
4350
5200
2880
4110
7540
-1390
3060
5220
-2440
4790
7870
1060
-3530
4780
-6520
7930
1730
480
-300
5090
-3480
7820
5730
3750
1270
3850
4340
4040
2550
3450
7210
6080
-4540
2430
700
-4030
-3510
1170
-5300
-1820
-6450
-2270
1430
4230
5520
7930
5460
-6780
8000
-1330
6200
-6900
2670
-3330
-4720
1100
100
-370
-4710
4000
-1350
-640
-470
6310
5050
-2920
-1960
-1370
-2770
6960
2100
-6480
5520
70
6800
-1510
-420
2180
-5060
370
120
-8140
110
-4200
1140
-2740
2140
6120
5230
-2410
-1570
1970
3300
2510
1140
-2920
-6490
-4260
-4850
-290
7620
6580
4870
-5150
-7950
3990
-4260
-4580
-2030
-4100
120
7540
2680
-4930
-1300
4150
1100
5210
-7330
-5500
120
4100
-7090
-3650
-3390
-2150
1680
-5730
-110
-2490
2920
6740
-3020
-2920
1900
-2660
-1250
2170
-60
3870
7990
-2680
-7360
-2630
-4610
5980
2820
2240
400
7640
3800
-540
3630
3420
-5030
3820
-6090
3400
-720
-5060
-2040
-5300
-3230
-2050
-2320
7000
450
3740
3890
-1170
3110
-4980
4860
-290
4800
-2700
-5710
250
-2850
5520
7190
3260
-2250
500
-6800
3480
4330
-5150
4380
5770
3920
-3010
-2790
780
-1810
4990
4920
3460
-150
960
-2340
-7270
7490
-980
4990
10
-3870
6910
150
4460
-770
-350
-5150
-3470
5170
6120
6020
2380
380
2820
1440
1130
7570
490
7510
-6130
-1150
-550
-5990
1060
-5350
1540
4420
-8140
5070
-2920
-4590
4510
-6220
4510
-3660
-680
-3750
5060
-4260
4370
-6500
-5040
7270
-6780
-790
1940
1400
-3940
6790
4530
-520
7420
510
-1750
-4000
100
7880
-4560
2340
-650
-8020
-1580
2010
5580
140
6660
6900
-480
1280
-8130
4660
1730
-7000
4070
-4510
-630
870
690
-1020
-8180
1180
1140
-7270
1970
-7620
-3110
-1360
3640
-6740
-1520
-6010
-5100
-4450
-4720
1540
2460
-2950
-2550
-3350
-2630
-2380
2040
-150
-8070
520
5790
-1360
-5580
3210
7020
7740
210
-2880
-5400
3620
5410
-2940
-5370
-2840
-160
1690
3910
6250
-4350
-6840
-4200
-7650
-6170
-7730
-2510
-5160
8000
-4630
4160
2240
400
5250
1950
6270
7690
3300
1720
7630
3290
-3920
-8150
-3440
400
3360
-3450
-5630
1330
1770
-8180
4810
6270
4660
2640
-2560
-2970
5660
8100
7300
-1820
-7700
740
-4330
-1350
2840
3560
4670
-6250
5460
3720
-2980
-7980
-4410
-3180
8080
-2120
6670
-7140
6280
5190
-580
-4890
-2130
3680
-6870
1990
-2570
4980
360
3380
7570
-1550
-270
-5960
-1260
910
-5890
3420
5650
-3020
5440
-4020
-2260
5030
-5380
920
-7220
-900
-7040
-1830
-2380
-5080
2040
4140
-5420
-2000
-7520
5570
5190
-750
-2080
2790
-7380
-700
790
-1970
-6040
-2440
5360
8180
630
6130
-5530
-7420
6860
-2990
-4880
-6510
5260
250
-4630
-3960
2300
-6380
2080
-7730
-5460
-8060
-6250
-430
-6090
1260
-4370
5400
2600
-1760
7210
-1450
880
2320
-1860
2660
3100
-6410
-6720
5590
-1810
5070
2080
-1070
5710
-5210
4650
6740
-710
5400
-4410
3500
-420
5280
-4450
-300
-2920
6260
4810
1230
-5120
6710
7280
-2830
-1560
5660
-4770
350
-4450
1970
-3430
3200
-7330
-5180
-2270
-7360
3250
4140
-7220
8010
-6510
-3540
-2980
-5460
2360
310
-4600
3530
-3100
-7240
-7200
5850
-6370
770
-220
4410
-530
-5240
-8000
-4010
-2680
4770
4310
-4370
-3020
5270
-5670
-1740
2120
510
-940
-4690
6570
-630
1150
3540
-2150
-6060
3150
-5100
-2860
4120
140
-7610
-6110
-1570
5730
3850
2440
2020
4330
4440
-3670
7630
4880
2240
-2170
-610
5860
990
-2550
4560
-5300
-910
5360
-4150
-1300
8170
-7220
2090
-4580
2130
3550
5860
-130
1010
5790
-3230
-2170
6010
4260
-3860
-7060
-4950
-1240
-4940
1600
-5900
4250
4460
-2610
-5450
-3180
7830
6200
3880
1830
-6250
2650
-4720
-2200
-2550
5320
-240
-1030
-7960
-2930
3450
2920
5890
-7210
-5700
6110
-5640
1780
-7680
-2610
-5550
1090
-130
4770
1440
-6350
-1170
-7080
-3160
-2520
-3520
-4130
2250
-5140
5110
3190
2660
7100
2650
-2250
910
8000
3520
7800
-1110
6280
1050
-5250
1000
5790
6720
5860
4310
1750
2540
-7450
-5230
-4010
-760
-6670
6930
-1580
-230
6680
4800
750
-1110
-3160
-7730
-370
-2770
4540
7000
6420
-1540
-5710
-2090
1920
3310
-610
-1110
-7370
7580
6610
-4970
8130
-4490
-1530
6240
1090
-1330
7980
-2070
-7490
-3590
-6820
-680
7750
-50
-4810
-4070
-3960
-800
-380
-4350
-40
-5420
1560
1250
2770
4350
-3450
-410
-7800
3240
-2320
-1760
2070
3830
-700
7760
-2920
4100
2740
-3870
2120
1720
2350
2520
3440
-5990
-2640
-3750
8010
4570
1960
-860
5880
390
-6390
190
-1420
4270
-2140
7140
800
-2340
7780
-1390
3020
850
-7340
-4900
-5330
-2650
-4730
7430
-1560
-4670
-6600
-5920
770
250
110
890
-3820
-6170
-1110
-3310
-4010
2280
4940
7350
7200
-100
-6960
-1230
1640
7230
8070
-7520
3190
-820
-3870
-7150
-2330
880
4460
-6920
-5840
-370
-8120
3690
3100
-2000
6970
7220
120
2930
7410
2450
-5380
2020
7440
3320
-4850
-5840
7970
-4530
5230
750
4040
-230
90
7670
2410
-3020
-5800
4590
6200
7670
-5320
6260
-7840
-1140
6840
-5500
-6190
2950
-7090
-4540
4820
2800
-1870
5950
6820
8010
5940
-1530
-4430
-5930
-4140
-1770
-6470
-1820
-1060
-5410
30
4740
-4050
-2310
7390
7000
3070
-4160
5370
2370
4390
-150
-1480
3020
-7930
2710
8000
-480
-1760
-6340
-60
1210
-7700
-6840
5040
-360
8110
-4100
2090
1090
-270
1150
-4860
4310
1720
7600
5310
6950
1800
7190
120
-850
-1790
-6000
-8020
4510
-5530
690
-3310
180
5510
6710
4290
-380
8030
-7550
6260
1160
3660
-810
350
-5590
1640
-3940
-7220
-4290
-2120
-4960
-6990
-2690
1000
-3600
-7580
-6760
500
-2990
-10
1890
-3780
6220
-5740
7900
6450
5060
-1940
8040
5390
1210
7870
-7280
320
-4090
4860
-3750
6550
-2910
-4790
-3030
7590
-30
6780
-900
-1050
-8140
8010
-1390
1010
6480
8000
-4410
6020
-720
-6790
-3080
-1080
-1790
7080
-670
-3990
-1470
-7140
4530
-3220
-4600
2700
6830
-4650
-3680
-2050
6750
5440
-8140
-3480
-7800
150
6730
-380
-30
1550
-4180
8010
6400
1240
370
-7930
5980
5850
6210
2870
3950
8020
-3630
370
-3640
4140
-7630
-7120
1200
-6740
-2890
5710
4320
810
5820
-4990
-7570
-2130
6490
7320
1420
-5220
-3120
-5240
2590
5160
-2520
5930
-7990
-1100
-3820
1520
-7150
-6340
-4280
-5710
6650
8040
-6260
8060
3990
-4010
5670
-4820
6970
-1020
5670
-5870
7330
2510
4330
-6440
4460
550
-3700
5020
550
1760
6450
-6740
-7460
-490
-4760
-1090
3630
2010
-1200
6350
5330
6600
-3060
-4410
-4560
7000
-2420
7270
-1670
-6880
550
4160
-6590
-3220
2530
-5490
-6040
-1210
120
1520
3930
1290
6010
-2990
5370
-3020
-6260
-310
-2790
-2890
6050
-4090
3470
370
6120
7870
-270
2590
6640
1480
6240
4280
-1450
-2240
-4010
8120
7590
4460
4880
-260
3600
-5020
4650
2050
-7930
-5050
-1480
5220
2310
460
3560
3570
-7400
1360
2260
-5740
2180
910
6310
-2410
-460
2120
-6530
-3810
-7110
-2740
1910
4710
1390
-270
7030
-5270
7600
-4080
-5360
-4080
-2870
-3020
-3350
1610
7750
-4310
-6310
-1960
6560
-2840
1760
-2560
-2420
7240
5180
4450
3220
-2250
5310
4820
3360
-4570
-1620
4130
1350
-6390
1550
-1600
-2920
4420
5630
-2480
4340
-6120
1850
320
2160
-5360
-7350
-2900
4800
-6880
8100
2220
1460
3150
-3980
-5520
-7670
460
-1560
-2580
-2900
830
6450
-2110
-7740
-750
7110
7590
-6450
-6160
1920
4860
-5250
-1320
-5850
-6630
-5840
5090
8160
5290
520
-2040
5570
-5740
-7480
-1620
6410
-860
-3140
-7450
-4910
-3030
7180
-3180
3530
3240
-1720
-7730
-3450
-1600
-6260
-5370
6090
-6250
8120
30
-6560
-1710
7580
5420
1380
4460
-3490
1340
1100
-6740
3680
-5550
-380
3440
80
7390
-4230
-870
4780
-1280
-1210
-5080
-1330
2220
-5720
-860
1060
4710
-2100
4020
2750
-7050
6480
-2470
6440
-1170
2170
-7080
1140
7930
-6980
6790
-6520
550
5050
3320
2680
2100
-880
6590
1360
-4320
-6370
4070
8160
-7040
-7340
-3870
-2890
6420
-4430
7440
-2970
-3560
-340
-7860
3850
-4490
-730
-1760
-3220
-5630
3380
1830
-1250
7260
7260
3330
-7090
710
-2390
-1590
4990
4930
-3210
6550
-1260
-1180
-5380
230
1570
150
8080
-6390
-3440
-4450
5470
1050
-4530
5430
6210
7710
-2440
-3920
-7110
-7470
1580
-2570
7010
-2550
350
2030
-7000
-5690
170
-4690
-1720
5450
-3990
-2360
-7130
-5820
6150
6310
-5610
-7930
5560
-3490
680
-100
-6850
-6170
0
-6170
5250
-5350
4750
-4570
7570
-960
-2580
-1400
-4470
-4410
30
-6340
-1260
2630
-6610
8080
770
3860
5800
6470
2560
4330
8090
3850
5140
-7870
-4570
-450
-1030
-8060
2710
2740
2750
-2120
7470
1490
-7370
-6260
-3830
-2370
1460
2150
-2400
2270
1990
-1820
7510
7470
7670
170
5100
7030
7680
3450
5260
-5200
-1770
7900
-140
6350
-7950
-6300
3480
-6290
3380
3400
-6500
6370
1890
-4420
-6760
4810
1810
3790
20
-1850
440
3640
440
1220
330
-5300
6950
-3710
-6620
1200
840
2770
7790
-4070
-7800
-1220
-6250
600
230
-7250
4790
210
-970
-6610
7890
-2860
3300
-1540
3110
1950
1630
6950
-3590
5140
4400
-5650
3670
-6050
-6270
-3150
6490
-1630
560
5970
-990
-2790
-4760
4390
-1630
1890
-7270
6080
470
-3410
230
-7630
-7040
-2010
-3050
6740
-5950
-4440
-4260
-6830
-3190
4880
-1970
-1710
-7000
1030
-600
-830
-1220
-880
2450
4480
-2350
-1840
-2670
4540
5480
480
-5760
6880
-4990
-7210
7310
7280
-6720
-1070
-4960
-2180
3670
-6990
-3120
-8110
6730
-4390
-7690
7750
-770
-550
7550
5960
-6780
5390
-2450
-6170
-7200
-2450
-5920
6850
3910
7150
-6630
-6080
7700
-4170
180
-7580
4050
3010
2500
7100
5840
-6610
1300
-1860
-340
-5850
5440
1460
-2400
3740
2200
-7270
4860
7930
-840
-6030
6400
-5060
-1950
6200
-260
-3550
-7370
7120
6980
-3830
5990
6720
-1640
-3670
-5560
5650
6750
-7170
1100
3840
-7250
790
-7630
2550
-5200
-6800
2520
5620
3580
7790
-6190
5400
-5190
2720
770
7920
-6280
3320
4290
-4640
-2360
5500
3430
-7690
-1710
-5280
6020
-5420
-6380
2550
1770
-7580
7830
-3410
5650
-2280
100
3850
8070
-5580
-2520
-6320
-4050
5320
7010
8170
3160
-2020
730
-4030
6290
-3560
-2810
-3790
5910
-3240
-6340
2680
-180
-4170
-1140
-2200
-7780
-5370
3580
-8190
2850
4510
-6030
-7200
4450
7480
-5070
-720
-1470
-6640
-4300
6790
-5270
-1110
7740
-6450
2150
4160
3210
4740
-4880
5920
-3580
3300
-4240
-4170
-4910
2640
-4040
6560
1450
7660
3070
-3730
2170
3960
-430
5970
-7680
3500
3620
80
5960
-4770
-3040
5590
-30
1750
6810
5070
-6390
6860
7220
1350
-5910
7880
8080
-4820
3750
-140
-7310
3640
7700
-1770
7520
-4090
2480
-7680
-3020
1080
-4870
-6510
-450
5980
-7260
-2380
-4990
-2800
8070
3550
-6480
-3020
5450
-7910
-380
3110
-3250
5080
5130
5220
-2940
2080
6840
7460
2560
6530
8170
-6900
1780
3200
6920
-5600
3900
4730
1180
-5160
3960
-3670
-8180
1240
-3040
5930
4780
-1980
-7950
-4220
-2830
1890
-7480
7480
-4920
5480
3470
-3380
5100
6600
-2370
4840
870
1250
500
1800
-4350
8150
2270
7320
7600
200
3750
7690
2760
4870
-3590
-2240
-5510
-6920
-4650
-150
-4260
2040
3020
-7500
7810
-6820
980
6620
-5340
560
8150
-5270
2660
7230
-940
2220
2590
-5180
-5560
-510
1170
7500
-7360
-4650
-1880
-5050
7770
6850
0
-1260
5780
-7970
60
-5050
-6110
1000
3670
-3200
7310
4050
7490
5240
4410
1220
7470
-1710
7820
1040
410
6890
-6950
-4540
3790
400
4200
640
-70
-7630
-7170
-3330
1630
4150
-500
3870
6100
-7430
-5940
4640
4130
4580
6490
-900
-2090
6720
660
2530
-1760
0
5410
-7850
2290
4560
-7080
5180
6820
-5550
-210
-4360
-7620
6320
2390
-2690
-1940
110
-5780
7910
-7730
960
5590
2680
-7660
3580
-3930
-7910
5180
-4160
4070
-540
3060
-5740
270
870
4280
-720
7650
-4210
-4250
5200
-3530
600
-1750
-7900
-4630
-1360
-5640
1590
4130
-3670
5920
220
2080
260
-2900
4630
-5630
5450
-8150
-5070
2990
-2270
-760
-6380
-1990
6790
750
-3780
1850
2930
-2990
1590
-1410
-1660
1630
7400
6800
-8040
-2660
-2710
-380
2820
1740
5590
4170
-140
8100
3970
-3910
7360
-5360
160
-7280
3480
-4900
-6990
3610
2530
8040
1060
6380
310
1960
1300
4880
3620
5860
-2440
780
6010
1490
3540
360
6600
-8100
2850
-1620
-1570
-5460
7050
-3150
4960
6000
4420
5310
4240
4720
7280
1000
-3040
790
-7190
4780
-3010
-3920
3610
-5760
-6910
7300
-2470
-2540
5150
4380
-3910
4560
-1380
6970
6080
-7020
-4600
-7860
3350
3620
4980
-5410
-4330
6190
5360
8150
3470
2010
6750
-4940
4510
6740
-8100
-6240
1430
-4350
-7900
6930
-1630
-4940
-3010
2220
-1620
-5330
5590
4430
-5180
-690
2940
1410
3740
3180
4050
7110
1100
-4470
-7830
-6130
3140
830
-1650
-6380
7110
-4180
4500
6590
8130
300
-1310
-7360
-2080
3700
7640
-4120
3700
-8040
-7680
3170
7030
-6020
3590
7580
-1570
350
-750
3090
-2340
-6850
-7210
620
5560
6950
-6990
-1760
-4170
270
-6660
4770
3600
-1550
40
-8000
6130
7880
-2900
-4890
-4070
-1770
4760
-3240
200
8020
-560
2990
3880
1700
220
6490
-8150
1780
-2700
1860
2490
2190
2100
-1360
-90
-30
3220
-7290
-1820
240
-2050
1900
4600
1270
-2580
7040
-610
6920
-5760
-1230
6950
2270
-7470
-3430
640
-2190
-3440
6610
-1670
2580
-4000
-4190
-2970
-8110
-2060
4380
-4150
-950
-5330
1540
-6930
5550
-6870
-1150
-6050
2190
5350
-8030
2060
-2680
-8030
-5880
-2950
570
-130
-3780
5570
-6130
-3840
5670
-540
-260
-5110
450
170
1920
-6190
-1080
-4590
-3450
-7150
-6440
-7860
2580
-7610
-1160
6840
6220
110
730
-2790
4050
2920
-7020
-1780
6150
6990
-6850
4220
-1480
-430
-2510
3840
-3180
7050
-4610
-7860
2870
-2850
310
-140
-8110
3840
5650
7280
-6690
6800
-770
7290
-7080
6310
2750
4310
-6090
3110
2000
-1840
-2180
3250
1190
7900
3420
-3910
-6740
-5290
5700
3380
1200
-3610
-5230
930
-2000
7050
-2880
-5420
4970
-4130
-3780
4630
-2650
2890
-4040
6990
5500
1320
1770
-2250
6670
-690
2630
-1330
4390
1120
470
-2290
2940
-3280
-5090
5210
6390
-5330
7100
7530
3410
-4450
-3280
1970
-5990
770
-110
7110
1730
3180
2460
6470
7300
-7260
6000
1590
-3470
-2750
-1560
5530
-4490
-4590
790
5770
-1590
-6580
-530
7260
6980
1330
3520
-1960
6060
2410
5160
-5090
-6790
440
-710
3020
6750
-3820
2790
-450
-2230
-530
-6330
3380
-4340
-6520
1240
-850
-6170
-7020
650
4380
-3050
2190
1210
-850
-580
-3470
6290
-3780
3980
-60
6930
1590
-1650
-1060
5340
-1710
-2430
1580
-8160
-2810
-1870
4800
3180
-7660
4190
-5330
-260
-5110
110
-6620
4830
-5600
-4240
4910
7030
-3390
-6350
-4290
-2650
-8000
5250
3980
-3460
2510
-6890
2500
4950
3410
7730
440
-7950
2480
-8080
-7620
7330
770
-4530
3550
-2220
5620
3400
5870
-1840
5370
5240
4880
6220
1760
-3880
7450
2700
-7240
-5840
-7260
8020
2920
2930
6840
-4640
8110
6350
-5210
-6210
-2090
-5050
-1110
2450
4890
3110
-4580
770
6470
5830
1920
5250
1820
2250
6580
4170
2380
6440
7430
-4180
-520
-2640
-3670
550
-6630
2020
3400
-4920
1280
5230
6560
1520
-380
-700
-850
-1330
-5380
5550
-1540
3350
-5780
-3930
-4410
-4380
4540
-8020
-2020
4160
-1470
840
-890
-5670
-6410
5180
-1380
-5350
1410
7540
-2420
8090
-8000
-4130
6190
-5590
-370
7650
-5420
-3170
8170
-4460
-8010
-3920
-7020
5610
-7420
2290
810
7100
-6590
-7030
8130
110
-7060
4720
2660
-2550
7580
7810
600
540
4680
4580
4920
-4550
70
7960
4850
6800
6080
520
-1020
-2340
-6500
6680
-5930
-5620
-4760
-6680
3980
-1380
6970
-980
-1340
-6140
-5940
1780
-2230
4260
-5270
7140
-7320
-4270
7370
-7980
6770
-7870
-7120
6940
-5780
2010
2440
4810
-610
130
30
-4910
4930
5300
-3390
-3860
-630
5710
-5400
-340
-4700
2020
4400
3910
-2320
-4840
7650
1830
5180
6340
4400
6940
1940
-70
6950
6900
3370
1890
-4720
3610
2650
-1710
1780
5040
-3070
-6890
-690
1460
-7290
6300
-5310
-1100
-4600
-690
-2100
8050
-4830
-1980
-1360
-360
-7820
7010
1050
-4950
-990
3890
-7210
8170
4000
-2610
3390
6370
4480
7590
-2970
-4870
6400
-5130
2370
-4720
5010
1170
-7860
-6020
1210
380
-2670
-5650
-2690
-2960
-2420
-2490
-5640
780
-5160
7110
2450
-7840
-1920
-1140
7050
-2290
3690
4010
-690
910
2990
-1770
7550
7600
-1620
2600
1300
-1250
-7480
7760
380
-600
7620
3060
5590
620
-4710
-4240
1210
30
-7910
-690
70
5260
-1320
-4440
4400
-1950
-4360
-5020
-1210
1770
2020
2880
-4620
4220
-7470
2100
490
2110
-2030
710
-6710
-1490
4200
-4970
1630
-2940
-5240
-7550
4580
-800
-5460
8100
-4280
5730
-2910
7740
-5450
3960
-860
1370
-6580
3250
-5550
-7370
6300
4540
-3790
-3080
6500
5690
-6800
-6690
-4660
8020
-6200
-6010
-3970
-1440
-1750
3360
7240
3760
-2440
-1230
3150
7080
-1270
-7780
-2980
-540
3980
230
-2460
2330
4310
5150
-180
1650
410
340
-5570
-4950
-1920
4920
-990
-4330
-3220
-7850
6260
-5490
5880
5880
920
-5740
1090
-7720
-590
4780
-5600
3830
8070
-3720
-3460
-2050
-2290
-4130
-3440
-5870
3740
-3950
7030
4580
-5380
530
5650
-4160
1330
-2310
-470
-800
5970
2440
0
5210
3970
4270
-570
4610
4860
2040
6640
4130
-4690
-3980
4480
7180
-1680
-3380
7480
-5570
-2120
6760
-4860
1630
4880
-6490
-7320
-1890
-500
-270
10
-4410
-7010
5700
-6730
-5560
-6170
2150
4160
-1500
3400
-4300
-6570
830
-6750
-8150
-4750
-990
-4400
-4310
-2120
520
-2870
-7080
-1160
1160
-5250
-3460
4970
4780
-1760
340
7000
-360
-1830
-1070
1780
-1250
-4550
5840
2450
5040
-6940
-3080
6150
4950
3220
-3510
-5430
-5370
120
6930
-1840
-3170
-3680
-5020
7030
-4400
-3790
-7870
7850
6430
-7830
1890
360
-5210
870
3280
7330
6140
-4900
-3530
7800
-2130
1420
-2480
-7290
1760
-5460
5560
5680
4530
350
-760
-870
960
-7420
-7150
2840
6000
-4940
7660
4900
-6350
4230
-130
6670
-2000
270
7690
1230
-2150
5260
-4490
5940
6850
-5420
-1580
-640
-2780
6040
2280
300
-3090
-4010
7270
-2400
-2080
6010
-1250
-1890
-4360
8030
1780
-2420
-4000
-1300
-7080
-2370
340
-3810
-4990
7300
730
-5580
-2350
1960
-740
4200
-7420
-6140
2610
-4990
-6740
2860
4430
3140
7840
3750
-3440
7980
-3690
-5310
-3700
6540
5090
-3770
-900
-5190
1050
4310
-1520
-7650
-1080
20
-7150
-3200
1780
-7550
3370
-3670
-5630
-2400
-7550
5820
-5520
-2520
6510
5230
-7790
-1080
-920
1140
3460
2630
-5740
-1570
6610
6100
6420
-3910
-1780
240
570
-2610
-2470
-5110
3510
6410
4250
-6190
-6360
5120
7630
-7360
7050
-1430
-100
-7140
7350
5930
7570
-900
4480
-7000
6820
5540
4230
6080
3220
-3010
7510
6440
-2940
1360
2920
3430
5910
3940
4950
-7140
7460
6370
-3410
-5700
-3230
7050
7000
-670
1890
7260
6740
-3970
-920
-3060
-1560
100
5370
-3780
-3230
-7590
-7840
1900
-8020
6620
-6910
-4880
3840
-990
1840
-2060
-1540
2970
2010
7720
2130
-6770
-7850
5110
-110
1970
8090
1800
-3480
-50
-830
-6320
-1130
-4800
-2340
-5880
3760
6240
-4870
-100
-6540
-2530
5020
2270
5590
-3750
370
6710
1420
2070
-5410
-5480
-6780
-7880
-5060
4750
2150
-2480
540
3410
-6490
-840
-2520
-5250
3090
1460
-1840
-7520
7650
4370
-5230
-5940
6710
-7540
-1830
3530
-2560
5200
-2580
500
7870
-550
3220
1580
-4930
-7370
190
2130
6290
-3720
-4720
4360
7510
-5780
-2330
-5000
4930
4890
4890
-7280
1240
1460
-7370
-4740
-6470
-300
4960
-7160
2860
-1360
-1540
5960
-3350
70
4110
2380
3380
-3830
-6270
-5280
-1470
590
2220
7500
-2950
4720
7660
7820
5590
-6920
-1760
2160
-1270
-7080
8130
370
7560
-5660
8120
7770
-2550
7560
8130
-6920
5870
2290
-4500
700
4990
-4420
-7040
40
-6390
-7720
-2530
5480
-7440
6860
-7630
-3630
4980
-7120
740
-3090
6830
-4720
-490
6710
-3650
-7830
3090
7210
-7310
4450
-3500
4380
-2210
-1490
770
-380
4760
7250
5930
-8140
-4700
1120
3680
-5640
-4380
3150
-8020
-330
5690
-1870
-7870
-880
-6610
-2170
-3830
4320
5330
6580
-2340
1740
8080
-5850
7000
1550
-5900
-400
-2260
-2930
2870
1000
-7340
-1170
-4490
-4760
840
-6400
6740
1150
-3280
2680
-7310
2290
7250
2990
-4720
-3910
5980
2250
-4740
1240
-5060
-2840
-2750
-4140
-3710
2010
6400
-6130
-7120
4530
-7540
530
-6130
6760
-960
-2020
4160
-610
-3040
1740
-1070
-3510
7780
7450
1410
-1970
6300
-540
5020
-2490
5640
4120
-3980
2760
-7530
-7690
4000
6250
5950
10
4340
-5740
5430
2820
7730
-590
-700
-920
2750
5010
3700
-710
540
-7280
5670
-1620
-3510
2850
-6560
-7830
7280
-2320
-1620
0
6780
-4050
-6380
-670
-7470
640
-3000
5220
-6960
-2610
3630
6510
-1580
4650
-3110
-6680
-3800
-640
-2300
4450
-1080
380
4430
-7980
3460
7040
8070
-6390
460
-570
2960
-4110
-7200
4340
1270
-3950
-4280
4250
6510
5700
-5320
-3660
4260
-3970
-3200
-7540
6080
1790
-5440
-310
6100
-1440
5220
-1510
7390
5020
-2120
-3960
150
-5270
-3350
-780
6750
130
7780
-1110
-4860
7960
7110
620
270
-1070
-7900
7700
-970
-2080
-5760
2620
470
-4930
-7110
-3070
2070
-5610
-7370
4180
-6170
2510
2830
-7480
1400
-5140
-240
1570
-2630
2830
5980
2590
7840
-6260
-3910
-4770
3490
4640
-1570
6020
-1770
-2270
-910
-8190
7750
-5820
5980
6490
7930
4000
2540
-3040
-1530
-6840
7390
-3730
5330
-8040
-7520
-500
-7680
6510
-3790
-5900
-1850
-1120
2960
-5880
-4370
-1270
-1780
-1920
-5840
-340
-6200
-6570
3330
530
-6270
-280
-830
6760
5520
-6120
7730
3720
6950
650
7080
1240
-7690
-7940
3010
7790
-2030
-250
4130
1410
4740
-2350
2350
5390
-3780
-5400
650
-1420
-5630
-4380
480
-3500
5230
4880
-1780
-2900
-3490
-5060
-1560
-660
5070
7760
-1780
-30
4490
-4820
-2280
-80
1460
-320
1440
-1930
7030
7010
4710
2010
-8100
3230
6150
-1000
-6600
2070
-4790
7650
2470
2050
5650
2930
-3980
-5090
-4920
-3960
2830
-600
-6240
-5720
5630
-6770
5770
2910
240
-1970
-6810
7410
7970
4780
-4520
-490
6230
790
-7830
-2010
-7780
-6500
-6900
4680
6910
-7720
-6060
-2800
3940
7610
-620
-5650
-8190
4660
-3270
-5350
1170
-4850
5690
2200
-6390
8180
-1910
7300
-7410
2010
2450
-3990
3160
3720
-7310
2520
7750
-6050
-4860
-2070
4740
-1710
-3540
340
3400
1120
1830
5210
1830
-5220
590
-6710
-5920
-460
4770
5930
-8000
2430
4560
-1220
6630
-1040
-1080
7710
8140
-6570
-5120
-6910
-7560
6310
1930
6780
-5040
4580
900
610
-5400
120
1830
7460
1870
-1200
1080
-2130
-3500
5860
6830
2390
710
-2270
-3640
3380
4640
-3730
-810
-5360
-6420
3910
-80
1500
-7760
1350
5680
2300
1670
-2300
-1880
2570
-6110
-6390
-1870
2600
-2730
7330
-7660
-2150
7970
-5650
-7930
7360
-5270
6010
-800
1360
-680
-1560
-1900
-810
4090
3200
420
2020
-2440
7310
-3650
-6080
4380
4440
4110
5880
3000
1400
2270
6560
-7890
6650
3050
-1130
4280
3750
6560
4090
1770
6610
1920
-5150
7830
3390
6210
2710
860
-7500
-2710
3950
-6770
-5880
4290
-5170
4550
1030
1840
-450
3200
5290
-7300
-5870
4410
570
-7980
6360
-1770
-7160
6800
-2260
1040
20
1210
3740
-3480
-900
-240
-4790
-3660
5940
3580
5360
3700
6140
-7900
1030
-7040
610
2100
-1690
-6030
7260
-3840
3880
5010
880
7190
-7520
4140
7910
-3240
-8090
7060
2750
-1550
-5540
-360
-7570
-5440
-1690
-5750
1550
-4000
5740
-6550
5910
-6920
7360
-5610
2400
7620
-2690
2820
-4480
1590
-5190
5650
-1530
-5280
-7350
7810
5820
-4900
5680
-1130
-3580
6360
6520
2670
5240
4110
-3760
650
4870
2800
4840
-4960
-2520
3730
-6460
3790
-4620
-4470
-7700
3540
5270
-140
-5430
7550
-7240
30
7160
2120
5490
1410
5140
2880
7720
7800
-7210
-2200
1060
-6070
8090
3900
-4620
-5020
-5860
3460
-6770
-6700
-4280
-3170
-5170
3410
-1980
-3950
-1100
2310
-6150
7580
30
210
4940
1350
-6880
-2700
5520
-5750
-4890
-7160
7450
870
820
4820
2910
4940
-6280
-690
620
-2160
7650
4430
-6870
4110
3240
190
-1990
3460
3580
-7130
2470
5520
-1340
-560
-6740
-3910
-2870
7670
-4250
-2080
-6820
-410
3500
1310
-1840
3630
2920
-6120
160
-6000
-7330
-1190
-30
-2590
7240
-6730
-2200
-7500
-1290
2800
4970
4450
-1070
6560
-2590
-980
5590
-380
-3810
-2070
-2150
-720
1680
-3380
6750
1530
1880
-6710
-4220
-1030
-1330
-4060
-5840
-7260
-550
-810
-6340
-5000
-1630
-7560
4710
1730
3290
3870
-3210
5600
120
-6140
-3250
-7100
280
-2620
-6520
-7050
1500
8170
-3530
380
3500
-7230
1070
-7180
-4160
-1650
-2250
-710
6530
8000
6390
-4950
4570
6740
1350
-1090
490
3370
-3810
2050
2890
-1400
2970
7930
4710
3900
-5280
-6950
6670
-2340
-2760
770
1250
5330
-2170
-7060
7240
1710
6800
3210
-5350
-6670
-3150
340
1870
5810
-3710
7490
2800
-4290
2060
-4710
-4350
2690
-610
-4630
6920
6930
-1440
6620
-3890
-3180
870
1880
-720
-2730
7550
-4660
1930
-7300
-1290
4920
-700
1920
5940
3190
5950
1210
7910
-1670
2220
-5870
4890
-4180
-790
5720
3750
-2850
-690
-7130
2290
-2910
5910
-1450
8040
-1720
-5540
3060
-5160
2650
4900
4010
-7240
-3680
1760
-4440
-1080
5140
1080
360
2450
2580
-7900
-5700
-8090
5800
1590
-4750
3380
-1200
-6730
5650
-5740
-3710
-7310
-3440
5010
1900
-3040
3580
-210
4400
-6400
1230
-6610
5720
-5840
-1260
2810
20
850
-3160
6630
610
-2670
-4130
5720
4670
2980
1270
-5040
-3920
7170
200
-4680
-1570
2100
6760
3170
-1920
-8070
-7560
-2030
5740
-120
-3650
-4760
7070
-4830
4150
3940
-1890
-4590
-4430
7430
20
-1810
6420
-3250
6610
6790
4910
-5140
6800
5390
5980
-580
-6810
2340
8010
7020
-3600
1350
-7910
5780
-930
8110
7780
-1700
7510
-5320
-2530
5580
6920
-5450
1940
6450
-6480
6130
7910
3920
7730
30
-310
7420
6950
3130
-8130
-7860
-3170
3950
2880
-6660
6250
-3110
-6500
-6480
-5650
3230
-6910
3980
-2950
7670
3710
-5460
-1320
5420
-6730
2830
-2000
-2910
-1680
3240
1310
-5420
1090
130
7170
-4340
-4400
4280
3170
-3860
7760
-8080
4350
-500
-1170
5820
-2090
-6090
-7070
-6970
-7500
2170
-4790
-7850
2310
8080
-2470
-5920
1610
-7220
-5130
3990
-3620
-1320
4150
-1100
-3170
-7990
7820
-510
-6150
-4680
-4900
70
-40
-190
6680
-4200
-6610
6890
2740
-4260
3960
4830
6280
-7390
-40
30
-3790
570
-5310
1810
-6500
7560
-2310
-420
-5790
3470
6930
-5750
4820
4960
-1970
-5830
1650
2930
5740
-3260
1360
-240
1570
1620
7330
-8010
-4860
-4790
960
1810
-6730
-1370
4720
4780
-300
-6700
4360
-5230
750
-6130
-5120
-1570
300
6730
7180
2430
-6450
7780
7240
-7360
-2140
-8090
-3480
-7800
4590
4010
-1560
4540
5110
-4970
-5770
-1600
7010
3540
4310
-4710
1810
3100
7750
-8120
-6210
2800
-5760
5900
950
1850
-2790
3970
1240
-1580
2740
-3770
-4180
-5690
6160
-4600
-5010
7890
-3160
480
7760
-3710
2290
-5080
-5870
3050
4310
3650
-510
7910
770
4270
2760
4140
-930
-600
5760
7990
-5760
2930
7410
5520
-6760
1250
-4060
-4610
-2020
3560
-2340
-6830
-5590
-1610
5440
3040
-7820
-2400
7390
-1650
-7870
-7740
-250
-1610
-4260
-650
-2660
1530
8160
3890
690
-6160
-6010
-1600
7070
-4870
7190
-2380
2020
-6180
5070
5590
5030
-5060
-1970
-8060
6620
-1550
820
6620
-770
-6470
-6510
4110
-200
-6150
-6190
-4320
-2280
-8020
460
-990
1740
-5750
-6350
-3370
-2620
5360
-4850
-980
-6740
860
-4280
-6240
-3260
3170
1130
7540
4060
1560
-3140
2970
-970
-630
-1310
-4650
-4650
-6460
-3280
6460
6900
4390
4580
8020
-2530
5320
-4510
-3870
-7300
-3620
6970
-4910
5720
3570
-4860
1170
-4500
5010
5290
-1660
4230
-1820
1330
5290
-7740
-3220
-5340
-6130
1850
-5220
4180
-5530
4750
4950
8010
-600
-4910
6130
1030
7060
4110
-2170
-6860
4980
2730
-6230
-6730
-1300
-2740
7700
-1370
7560
4630
-910
400
-1320
-1590
1950
4170
7770
7130
-3720
5710
3130
2560
6810
2540
-5550
-2190
1980
-7470
-4990
4950
-2490
4570
-3610
-5610
1670
-7290
-5730
-1610
-6680
1470
-2880
6110
6510
-6360
-790
-5140
5170
-5530
-5160
-3230
3370
-3730
5230
6060
-6860
5900
-4850
-1830
4080
-7320
6500
1200
-6720
4860
-4410
4770
3940
-2720
-7560
7290
-1530
5740
-6440
5250
-6800
2640
3480
-710
-2650
-7940
6230
-7060
330
-1480
-3660
-7150
-6030
5500
-3300
-1380
6160
4260
7640
6400
2160
-5170
2640
-3120
250
6620
-1400
-5930
20
-2620
2530
3810
7640
5850
-4030
7170
-4970
-5770
-250
-1150
6120
3900
3030
6970
4410
-2340
6400
7090
1930
-630
-3780
710
-3590
5750
810
600
7800
3470
5260
3240
3980
-3030
5640
-4490
-2390
7230
-340
-6170
7950
8150
-510
1590
6760
-1280
-6730
-5970
-6050
-5260
-1290
-4840
-2200
4790
1030
5390
-6670
2540
4840
-3250
3700
3710
3740
2330
-7560
3460
-3440
-700
4810
-400
5760
-7850
6960
4110
1420
-2790
-7870
-1180
3260
-6100
2020
2500
6340
-7380
1360
-5540
-5190
-3890
2050
830
8140
-6220
-6380
-6510
-3950
-5060
-4690
-6740
3110
40
7540
4510
1720
-1110
4560
4600
-3440
5620
-3460
-7790
-1920
1550
7320
-4720
1640
-4610
5640
6530
-2440
-940
6320
-3060
5840
2960
5680
-1040
-1310
-1390
160
470
1980
-3900
-5520
4950
7030
910
-4960
3590
530
4870
-870
90
1280
-690
-3090
-150
-6210
-5180
850
7630
-6270
-4080
-830
6580
590
-1500
-3570
-4700
-3270
3170
-2510
-5720
4010
-7240
3440
-7380
-5440
5260
-110
-7130
-7700
1210
5820
6830
3380
3180
3290
-5420
-5720
-4490
6060
1310
2790
-7720
7360
670
430
-3440
4870
3430
5070
5750
-5280
-750
-2950
-950
-6140
2920
7160
-3590
-6060
7380
570
-7420
2770
1120
-8030
-4210
1620
-7210
-2410
-2450
3280
7040
5720
8080
1950
3830
1880
5260
-4280
2040
1110
5100
2100
2530
-4590
-4580
6040
4630
6140
5510
-3050
-6880
-6880
5530
-6140
-70
-1810
-1740
3410
-6660
-190
-1540
-1940
-5310
2120
4100
4610
6990
4550
4840
-4300
1300
-4610
-3460
6670
3410
1920
-2750
-1000
4860
1120
2940
1130
870
-5830
7850
2880
340
5850
730
4890
-3910
2960
-4010
6810
-2870
-7900
3990
-4940
-3990
-310
-980
-2270
-7120
5990
7800
6680
-4240
-1510
6840
-6150
-2440
6420
-6520
2540
3430
-3150
-690
670
3820
-2480
3020
1960
-3710
3720
4970
1340
-1050
-2110
-6660
-6060
2490
6180
-7860
-3090
640
6230
4920
-3220
-5790
70
-3490
7030
-7680
8110
7170
-4020
-990
-4580
5530
4570
-2920
850
6510
-2730
3120
-4410
-2940
-3350
-2300
2820
2640
-7300
-3740
6350
5090
4840
5110
-7300
-6200
2270
-7900
5650
-1190
5140
5840
-4320
930
-4960
4030
-5560
5050
-6880
-7780
-6190
2290
-3870
-6380
-2720
-1530
2520
4800
-4020
-8090
4100
6050
-5950
20
5710
-2320
-6310
4710
1770
-7550
2630
-7910
5080
-680
230
-7130
4590
-5370
880
1980
430
-3770
110
3730
-2570
570
240
2460
-1860
-40
2190
-6380
-6230
-1570
-6120
-5550
-1250
3110
-940
-2680
2940
-1270
1430
-7740
-1480
-5100
540
7150
4170
6630
-1340
-4760
4560
-7600
-2750
-4700
-4820
4420
6520
6320
-3990
4680
3800
5790
3810
-2350
4450
-290
3470
-540
-400
-1260
3570
-1020
-6310
-2500
-3780
5080
390
7380
600
3040
4760
-6250
-5590
1390
-7050
5050
7890
4630
-7880
7940
-3070
6320
4320
-720
-3100
-7070
2660
-4650
-910
7790
800
3480
3140
-2410
3140
-3810
6680
-1960
-2700
2240
-3190
6410
-7730
-5930
5190
2140
6230
5750
2440
3940
5580
3510
400
-2730
-5580
7400
5850
-3320
5750
2680
-7680
-2700
1760
6000
-2060
-2100
-470
-2560
1750
-1850
2320
-2010
2470
4520
-2980
-6240
-3890
-4170
-7330
-3780
2500
-1870
-4600
1650
7860
-3720
-2860
-4510
1640
-680
4400
-1050
-2810
-5920
-5530
1660
-7440
-5380
-2770
2390
7640
220
940
7800
-5750
4910
-4720
-1450
2480
-2650
700
-4180
-5430
-1240
7070
1720
320
-7770
-1200
2870
2830
-2310
5400
4350
-3600
-2860
-6530
-2720
1760
-3220
-1460
6300
1560
1350
810
-6050
1200
-2700
3280
-5280
3190
-7620
5380
6550
5810
-7810
6730
2220
420
-6040
7630
-2570
-6130
5940
7000
7080
-6080
2420
-3920
-3600
-450
7540
-1020
-310
-5560
2550
5120
-3640
-6400
7430
-4000
7860
-7850
4090
-3440
-3910
-5650
-6750
-6520
3650
7570
-6130
-5850
2650
3350
-7270
6910
7670
6290
-6360
3400
-4430
5520
-5560
-3320
-6870
-1260
-4740
3440
-3530
4860
3450
-640
2730
-840
-5860
6500
2340
4990
-4680
2410
7460
2950
1230
-560
280
8030
50
-1640
-1760
-5480
-1190
4910
-1600
760
2550
-390
6560
-5660
6910
-580
5270
400
-680
5440
4650
1220
-5840
-5200
-6400
1420
-2800
-7850
830
-7490
6970
-2520
3090
-6360
4430
6010
7180
-1930
-680
-7210
3620
-2800
1070
6040
-2250
3100
-1530
450
2020
-6550
-2780
2890
-250
-5680
-5840
-3810
2950
-1040
-1830
-4530
-190
6010
-2520
400
6750
5190
-3660
-2940
-3640
-1180
640
5460
-2290
-70
510
-5600
-1030
6220
-3700
5620
-7720
6180
2980
3060
-4240
-8070
-6160
-7270
-1630
-5180
480
1810
-840
4030
-500
-5250
3670
-5840
-6270
-5340
-1030
1540
-2780
980
5020
6870
3220
-8190
-2250
7920
3390
1040
240
3520
-260
8160
-3830
2840
2390
-2360
6460
6320
-3420
-7930
-270
-6330
-5120
-1690
1110
-4970
5140
-7630
5420
1100
-2690
1820
-6770
6670
-2100
-5630
5690
-7330
2530
1490
-5060
3470
-2100
5560
-410
-5910
2980
-7120
-3130
7090
7680
-3390
-1080
-1890
-4590
-3060
-3740
-1670
-4850
-390
-3610
3830
200
-3640
-2220
-5450
-1940
-6090
4570
-4850
-5700
-7610
-3120
5530
2020
2340
2470
5590
-330
7860
3280
-6520
-150
-920
-1870
2160
5750
7860
-1090
3490
4910
870
3140
1890
5400
6690
7680
5110
-3780
-1440
-3830
-2710
2180
-2410
-400
5350
-5190
-610
5610
4050
-3730
260
-8030
2330
500
530
1290
-4250
-4480
-230
3730
6790
-8180
4740
5180
-7540
6730
6530
7970
-4590
1910
790
-710
6870
-5750
720
-2250
850
850
-7860
1110
1340
-470
-4660
310
7160
3600
2490
-6480
2220
-480
7320
940
2570
-2280
-1330
4630
2980
7420
-410
-6770
-7480
-7140
1460
-3860
4360
-6710
530
-510
5800
7300
1210
1990
-1720
4880
-8070
5700
3150
-5640
470
6220
-7980
-6760
3670
-6670
-1960
1530
5100
1650
5400
3400
-4440
-450
-1820
5170
-6500
-1180
5050
-2260
3780
-2740
4520
-1110
-7710
5970
6210
210
6470
-6430
-6470
-1670
-7790
3870
6390
-7970
-4510
-1660
5590
2110
-5320
-7830
-4860
-2510
3960
-6760
-960
2500
6620
-4070
-2780
5900
5130
-6650
-2260
1960
-2180
4980
-3260
-5620
1190
7330
-1080
10
6120
-5770
390
-7390
7220
5880
-1980
-5030
1950
-1660
7590
-5920
2210
5790
-1240
-4100
3060
5570
3530
6820
1280
480
-3530
-2550
2610
-3180
7200
2750
4780
4160
-5980
-220
-4170
1080
980
-2400
4740
-4200
-240
-1010
130
3130
7120
4990
2700
-3620
6680
6710
-4600
-350
-160
-1210
5110
-1280
3790
-3350
-630
2790
1530
610
-4980
-2380
6690
3480
-730
-1770
-350
-2170
3760
-550
-2800
2400
5460
1020
-5310
2010
8100
4890
-2900
-4210
4050
-1370
6840
-2190
-1760
3450
-6270
540
-690
-5400
-1810
1860
4160
4140
-4600
-7780
900
4070
6280
210
-6570
6430
-1160
-4250
1180
-1140
-6050
-4810
2850
7160
5770
-1290
5460
-6670
5860
620
-2010
6050
5600
4430
8060
-4870
-400
5890
160
-4100
-1810
-2880
-1620
-7650
5000
-5210
3320
-2530
2730
-7830
8100
4720
6030
3480
4360
4700
-2300
4200
4280
3700
5950
1000
-1810
-1430
-4980
140
-770
-2480
1320
-6680
6910
-6240
5200
-3570
-1810
-6780
700
-670
-6230
6150
-2600
2520
50
-2780
2850
3190
-5860
-4190
-5770
-2250
-2840
-420
-490
6910
6270
-3910
6410
-5620
-6920
5180
1350
-7310
3560
-7200
-2430
3120
7190
2080
-3560
4190
220
6090
-1020
-6850
-4500
470
3840
4180
-2560
-3320
3730
-2100
6790
1240
5790
2420
-3140
-910
2190
1100
-6060
-7630
8070
-4430
5680
6240
340
-8080
6780
-2390
-3510
6220
10
3360
-2830
-4170
7450
-5090
4850
-2910
-4290
-7410
3290
1060
-6190
3470
4720
-7810
7510
-4150
-6050
-2070
-5810
-1880
-4680
-1470
-7090
-340
-600
5690
-2320
-3570
-2450
-3040
-3440
7690
6980
-2730
2880
3500
2200
6940
0
7500
-420
4360
4480
-6750
-600
450
-6610
-2420
-4470
-1630
-1460
-6620
290
3760
-4000
3170
-7390
6900
5390
-1550
1610
7090
-2460
-5480
3000
-620
-1020
-6690
-4070
3170
-760
-3560
2310
4360
-1410
7940
920
-740
5820
-3870
-3350
-7910
3370
3740
5260
7460
-1760
70
3030
1590
-5180
3550
-7790
850
7850
-7330
2510
770
1050
-7280
-3920
6230
250
-1740
-2200
-1400
1270
4700
6030
-1960
-6680
-4310
460
6070
8020
-5030
-7260
-3840
6520
940
-5040
110
-1060
-3890
-3740
4060
-3660
-6170
2670
-4260
6660
6470
-6020
-1750
-5980
4960
4480
5350
-3740
-6100
-4810
-4170
7350
7130
1590
5380
-4010
460
7300
-250
-2820
-350
4890
2110
-5340
7100
-3990
-3050
150
6150
-5890
3790
3910
-2050
-8200
-7820
-5300
-5320
-1830
-7040
3740
-600
-6610
-2630
-4410
3200
7690
-4960
6280
-2310
5340
-2360
-2570
-6160
1510
6690
-2300
-40
5690
840
-6910
-7410
6810
3600
3120
7080
5620
-4120
2890
700
-2640
-760
-6710
-8180
6010
-130
-3660
-5160
5220
-3070
3870
750
2340
1000
-420
5560
4930
-7740
3900
-2870
5320
-3480
-5900
-6760
3140
-7590
-1240
-630
-8080
-6840
4840
-8160
-3550
-1120
3500
6830
-4890
1910
5920
-4470
1690
3500
-4380
5930
-3460
2650
390
-5950
7960
150
-3480
-3200
1140
-7140
-4760
-5340
-4980
2660
-840
6920
-5310
-1700
-4610
6440
-3390
1230
6710
4170
3280
-250
-1700
-2550
-2130
-70
4500
90
3760
4410
5620
3680
-7610
-380
-4670
3730
460
490
-6280
1610
-6060
7270
-660
2980
1400
1880
5310
3490
530
-7960
3000
3900
-2650
2140
2720
-3550
-150
6640
-5490
7000
-6930
3110
3070
-140
1320
-3650
-730
-2800
-2770
-5960
2510
-2480
830
6400
3300
3810
-4550
3100
820
-280
-710
600
3170
-3160
4830
3010
4930
7620
-6950
1820
-2780
2920
-1290
190
-90
700
2030
-5690
-5700
1090
1370
4330
6380
-2090
-2790
-670
-6600
1550
-7880
7790
-5410
560
-1040
-7370
-2190
-2660
180
-7420
-7660
7730
7680
7830
-1550
4470
-5140
2970
-1120
-980
1700
-3400
2410
1890
4210
-1110
-7000
5090
4330
1630
3650
1620
-6370
-4440
130
-3570
-6570
4890
1900
-1250
-5770
5980
-3390
4300
3710
5530
5250
-6050
6890
7500
-5740
7330
-5230
1880
760
-4210
-7920
-300
-3300
-920
-2620
-2870
-2720
940
-6300
6130
-1880
7360
-7350
4960
4490
-7760
-8150
-1680
-4490
-6710
210
-2350
-4050
4960
-3500
-4830
-3970
-4900
3640
-7970
3480
4410
10
830
5020
7940
-4470
-670
220
-5260
5100
-460
-1050
4050
1280
3600
-6320
2760
-7860
1770
4970
-5500
-7060
-7520
1990
-990
4580
-1810
-3600
2160
4620
-2880
-2500
8120
3650
2060
6820
-2790
-6520
1760
6260
2200
7460
-790
8170
-650
3070
-6840
-2370
3170
2260
-3910
2070
7170
-230
-2010
-5380
-2960
100
4620
5150
-1160
1690
-7490
6210
-8180
-1780
1750
-3190
6580
7130
-5790
4270
-2530
-2150
-6490
5550
-130
-1270
650
-6460
1540
-2730
4780
-7230
1550
880
-2670
4430
-4760
-7520
-2860
400
670
4860
-7600
-760
500
4760
-2100
6820
2020
-210
-7670
-670
1340
7750
-6940
7020
4210
7970
-6730
-5400
1580
4300
4860
5960
7420
4670
2420
-1580
2620
-2570
2080
1790
4910
-950
7840
-3770
-7940
-4760
-5980
5010
5170
1420
1410
-4810
4560
-5000
5380
3660
-3820
-6420
2490
5500
4740
-5030
1130
-6640
2160
-1700
3020
-8160
-6510
-7330
7420
1440
4420
2930
-7930
-4830
5400
4380
-4430
-1410
-3590
4290
5960
-8160
2690
-4240
7900
-6020
-3190
6850
6940
3570
-7650
4480
-3370
-7610
980
-5420
930
-6930
-5650
340
-20
-7020
6370
5700
-5690
680
-3780
-7540
2300
630
3280
4340
180
3430
2870
-4250
3680
-7210
2670
-2870
-7990
5320
-7100
3520
-4500
-4300
-7750
3100
370
-8170
-4200
-7150
3080
4570
-8090
7250
920
800
-2730
-3850
680
7850
7940
-6840
-2660
-7340
5970
1450
1640
620
320
-3980
-3450
7980
5700
-7420
2530
-2960
3470
2950
-1600
1630
8050
-2130
-1810
910
4450
3220
1080
-7880
-1810
6260
-4760
100
800
-4660
4840
2480
3640
360
7410
-5850
2230
2910
-1080
4050
-4980
-2340
6770
-960
4370
-4220
7770
-5910
4320
4000
7130
-3400
4410
2420
-6240
7900
-6100
-610
-2070
-3980
8040
30
7360
5620
6280
-3120
-2880
6050
750
4300
-2910
6550
-3750
-6810
-5210
1990
-3650
-580
7550
-3770
7080
-4580
-7760
-2580
4960
-3240
-290
6150
7930
1740
7280
-5150
-6640
-1100
2480
7180
-3690
-7760
1880
3770
640
-2150
7740
3490
-4200
-4360
2740
2190
8140
40
-920
7640
1500
3250
-860
-7100
2390
7340
8140
5860
6380
5050
1850
-2060
-820
7410
-5020
1130
-4340
-1570
1840
1870
-7200
-850
-3270
150
7410
6260
1640
5620
4410
-4960
460
-820
-5300
-1850
-4430
-1210
-7060
-4440
2550
-2530
-6350
3780
-3200
-6390
-1230
5640
2840
890
2270
-2940
1810
3440
3650
-990
-590
-5140
1040
-1280
-5870
-6030
4310
-160
-7450
1490
3610
-7090
-4110
-4620
200
-6900
3790
7530
140
1270
-1130
-3350
-7280
510
-4670
-4030
4260
-3950
740
6900
7870
6110
-50
2880
-3730
-7900
3380
-2090
-540
2180
-2160
1640
6370
-2200
-5080
7830
-6810
7660
1250
-1780
-1100
-5980
-4170
-530
5100
1120
3980
-5640
1560
-2030
3760
4260
-5240
400
-3480
7950
-2370
4080
-150
-4280
-6990
2090
5730
7210
6120
-3360
1480
-2270
-5470
-6880
2740
890
-1080
710
5950
-5150
660
-1060
-7790
-3610
830
3930
4120
-5670
-7980
1790
5320
-1270
6000
5280
-140
2400
5170
5010
6870
-7460
4600
-5230
6560
-740
5100
1870
-7000
4180
-1770
-7530
6630
-4120
4210
500
-6290
-7420
7170
4830
3220
8000
-220
-5250
6190
-630
4730
5810
-7630
3630
-3460
-5860
6830
1510
-5660
-5110
2520
-3500
-360
1850
-5880
-7420
-1120
3770
5310
-5940
-370
5220
-7630
-7130
-5040
170
1860
3150
7700
-6130
5090
3120
1240
750
3800
-4220
8050
8100
20
1330
8130
690
4430
-7330
-5780
6770
-3910
4090
6570
140
5560
7240
-4470
5890
4110
2560
-5500
1160
3180
-1340
-6320
-3910
900
5910
-6620
2930
-5820
-4490
-30
-6530
-6900
-7920
6650
-4590
6810
-1010
-7130
1860
5300
-1840
3070
6220
3130
-7950
1270
210
8000
830
4150
-2100
-7020
7250
6140
180
4910
-8130
-3900
-430
4370
2550
-4410
1620
-5960
-2150
-7090
2280
-960
-2790
3800
8080
5910
-6900
1520
4800
-4160
3070
4180
-4970
-4440
-7190
-7450
4200
-4870
-6420
-5120
5980
-2350
4540
7420
-7900
-2770
1080
4770
-520
-1520
-6700
-6440
-5590
-6980
-7660
6540
7670
-1030
3930
-1970
-7970
-5970
2540
-10
7570
-360
-1980
-1420
-7330
910
-3590
-3580
-5150
-140
7180
-1780
-7600
-7640
-6000
4960
3920
7230
2120
920
6250
5720
3630
-450
1460
150
6370
6590
420
5760
7750
6410
-160
-960
-3340
6710
6380
6840
2290
5810
-1880
-1550
-2600
6470
-6390
6480
-4990
70
-3030
3440
-1990
560
-5200
-3200
-7580
-6310
-6460
-3010
5740
-5920
2770
5250
-6430
180
-4620
-3800
-8190
5050
-5810
4430
-3700
8080
-4590
-4700
-6880
-5250
-2970
-5850
-2400
6540
5790
2450
6690
7970
-3690
5480
4210
3170
-5990
-3860
7750
4410
-2030
-7290
590
210
1510
-2340
-2150
-3810
1850
-7690
380
-4540
2530
7190
7970
2370
-2570
-2060
8130
-4570
380
60
7700
1310
-7440
5850
530
-6330
2900
7900
-4610
-3490
-100
-2280
2900
3270
-6870
4190
-7870
-4460
6610
260
-4430
-2290
7670
-4670
280
6170
4030
7480
-2060
-6180
-1330
-7660
740
-1480
7790
1930
3000
-4440
-1980
-4050
-1630
7680
-660
-3180
3520
2790
-100
6450
1640
7220
-7040
-2930
-1330
4450
1370
-5820
-7400
-8070
-1730
-3150
-3640
7370
1240
7950
5550
-7780
660
-2550
7710
4620
7680
-3350
2220
-2220
2660
7490
-7980
-600
5450
-5400
-750
-5220
6910
-2760
3090
-490
-6840
5090
-3880
4950
-930
7840
-2250
3040
-7650
6720
3250
-420
5140
-440
5510
-5210
5620
-1560
4040
-6280
-4710
5400
-5230
7990
-2350
6880
4230
-7450
5460
4570
1280
-170
-6350
-2520
-4240
-110
-5390
-6350
-3680
-6540
2620
4700
3090
480
-4270
4040
-5240
-6040
7250
-3920
6310
-4540
2590
4400
-1480
-7440
-7870
-1710
-5070
6240
7620
4470
670
-7320
-2820
-5430
5750
-2340
-4290
5340
-3470
1100
-2960
-3610
2560
-5310
1150
-1320
2400
5660
2980
5690
5060
80
2060
4780
-1990
1360
3740
-7400
3310
6290
6990
8160
7900
-7640
-3890
-3410
-7820
1150
930
-4360
5650
3320
7720
-2620
-3120
-8000
-5310
-4480
3430
4460
-3270
5210
-1130
7170
5490
-7460
-140
4730
-3170
3940
-5430
6290
5630
-1010
5620
3100
5410
740
-870
1540
5900
-3710
4070
-340
250
7850
-650
-1760
7210
-2140
7060
-1140
-2950
7630
5130
6220
1090
130
-6460
-3390
-4110
-5560
-3830
3450
-1600
-6630
2020
4630
8070
3270
1450
-1790
-5440
-7900
-10
5420
-6370
-4280
1460
6650
1580
390
-4240
1240
3970
2130
5880
590
2520
-3040
-6910
-50
-6360
5130
-4380
150
-4140
-3830
-1040
6140
-2090
3800
6770
-2740
-2140
3870
-4410
-6880
7340
-2150
-470
-5070
660
7750
2440
-4320
3930
2790
-410
6240
-5060
5920
1230
7680
-7210
-730
-3380
-1370
-7360
3420
2070
-2680
7030
2100
2190
2730
-160
3910
1590
1520
-7840
4390
2430
-3230
-3350
3830
6920
-450
-7540
-1450
-4970
670
2090
5090
3970
2260
4470
-2850
2990
-6060
-1680
430
7730
7620
-1590
-3760
-5780
-5820
-1200
5360
-5590
-7820
-3300
-620
-4330
-1710
-4760
7110
-7300
5550
-3600
-7100
-790
1290
900
6950
-4510
-470
1230
-2100
-7320
4830
-6430
-3060
-5030
-2550
-2960
6610
2860
-2480
1410
5000
5700
8110
-1100
4310
6130
-4930
5520
-2120
-530
-4550
-4210
4510
4920
4340
4350
-6840
6690
6390
5970
6500
-7580
840
-1880
3620
1250
-2150
5800
5030
-8120
-3280
6410
-6400
7790
4610
2170
-6560
2280
4110
6920
2760
7360
-2120
-3270
7070
6360
1260
3680
4730
920
1950
8030
-5760
1040
4320
-5870
-4670
-3000
4690
-6200
-6850
5470
-200
2310
3250
-3290
7160
2740
3890
-6870
1030
-7080
-3120
3640
-750
-6240
-3220
3170
7410
-6230
-8180
3310
5750
-6710
900
-5420
-4240
6690
1290
-2710
-190
6760
-6370
2580
-8160
230
-4900
2430
4410
-6080
4110
650
5420
4400
-6420
5320
2870
7260
-6890
-160
6090
-6380
6100
3730
1520
7390
-2750
-5680
5750
5620
-6470
940
-7600
7060
3200
980
6340
-530
5260
4300
2710
7670
7860
290
3640
2250
260
-730
-2940
-7580
390
7730
-1280
2020
-3180
-5090
-2630
-4240
-6200
-3840
-3620
-1100
-2390
-2930
1950
-350
1960
-2690
-1840
4180
730
1010
5010
-4860
-7530
-4370
-7230
-7120
-4780
-6140
3090
-4270
6800
3420
-510
-3650
6620
8020
-2010
-430
4080
-2040
-1200
-2390
5450
-7610
990
-7380
-5060
5960
-2130
1540
-6350
-5430
540
3230
-6510
-180
4610
-1750
-4330
5180
-2080
-2990
-3320
5060
-1950
-1890
-6780
-6270
-7870
-6460
-4770
1580
-3900
-6660
6740
3710
6760
1330
-7620
-990
3170
240
3240
6770
-2850
-4440
-7330
-4620
-5290
-1590
2400
4400
8010
-140
6240
6710
1050
-6100
3730
-5340
6490
-7940
-3400
3720
4880
-7700
0
-700
1540
-5070
-3840
-7570
-4180
7540
6900
-640
-1750
5640
-5150
7940
2780
-2200
3180
6520
2710
-3900
-1990
-1320
-4310
3550
860
-3580
2030
1460
-3560
-5060
50
7700
5450
-5450
700
5300
1510
5650
-6050
6590
-1170
-1710
-950
-5430
7330
540
-6350
-7910
6490
-2550
-3610
-3660
-2520
-4110
-6730
6610
6550
-4220
-4260
-1120
620
7050
4690
1350
-1830
-2200
7670
-5970
6520
-2630
-2000
-4420
-4280
-3670
670
6000
-3690
-2770
-5750
-4650
2200
1250
-1070
-170
6650
6810
-1460
-2130
-5980
-8150
-360
5860
-1490
-1900
-750
4390
-850
-2080
-7450
1000
-2140
-4700
-4200
3420
-2740
6400
3180
580
-6110
-6710
780
7430
3260
-6980
440
-8020
-6380
3220
-1550
6210
8010
6920
-7830
-5050
4570
4220
3040
6510
5180
1020
-5870
7170
7470
-5100
2980
-7080
2890
1100
5290
-6620
1300
3900
6230
-5620
-4540
-1550
-4440
-5370
3160
-5330
-7050
2270
-2190
-8050
4490
7760
-6740
3990
1530
6270
6790
-6770
-5310
8150
-3110
4040
4250
-3080
4970
6530
2540
-2680
3730
-6160
1300
2180
-2910
5170
-2900
-3980
2360
5130
6640
-1710
3600
-7820
5350
-4130
-5990
-5250
5540
3050
-2570
540
3170
-3420
7580
-3730
-2220
-2410
6380
6760
1910
-4130
3080
-640
6510
5620
1590
5900
-2340
4730
2890
-5500
2410
-6250
-5190
-3990
-6540
-5110
-3370
-20
-690
4000
-7110
6620
-460
7060
-3780
7530
-5300
-8120
7380
-4800
-120
-4900
-4720
1820
1950
-4380
-4800
-3770
-2260
-7000
3370
3120
2180
4040
-370
4550
-4630
-1140
6860
760
2270
610
-8070
7360
-2400
1770
6200
-4900
4360
3100
-5830
-7640
240
4160
4100
6040
2510
-7590
-7930
-690
1520
7090
3370
-6580
5780
-7560
-1390
-4320
-3230
6270
3280
2890
360
4530
-890
-430
5130
-4420
-5470
1090
2220
5510
-5530
5470
2080
840
7290
6370
-670
6010
-4470
-7580
990
-5690
7430
-850
-6410
-2820
6470
-7930
2610
4520
-3030
7260
-6880
5910
470
8000
5030
-2480
2320
4330
5460
7880
1840
-6360
4900
-1000
-6360
4730
2000
-590
7830
-5320
3340
-530
3570
5490
-2550
-7690
-2150
5550
-6560
-4220
1720
7690
-4100
3800
6360
1040
-7370
1010
-460
-3450
-6670
6360
-7210
-8090
-7220
-4620
4960
-140
3220
6340
6440
4030
3670
-930
-2880
4100
-2130
6740
6100
7460
-4240
2140
-2440
5540
-4890
-7700
1150
7310
2850
-5180
-7020
-700
-3040
2760
4260
6750
-4990
5730
-6890
3440
-880
6940
3830
1890
190
-1420
-2750
-210
-1340
6990
4830
-7690
2400
1960
1460
-4080
310
5130
6260
-1970
3780
-6990
-4090
5810
5060
-2670
-2800
-6570
-5800
6880
3740
-440
-1890
-4870
510
-1740
-7150
5410
6660
6340
1140
570
3730
-2900
-310
7190
-2650
-8150
4780
-6490
1060
-1880
-1780
8010
190
5430
-4010
-7320
7650
5720
-6710
5040
220
5570
-6470
5530
7780
-7270
-2550
5100
-590
270
5110
6470
1150
3570
3170
5090
-6570
-3810
-6120
-7490
-7760
5890
-5110
4160
890
-3980
-5470
-1700
6400
5180
7400
1010
7680
-2150
6060
-2990
2620
10
6660
2930
3430
-6790
1430
5310
3510
-970
8100
7680
-5520
7350
2040
7740
3770
-1060
1650
-4790
-5590
2300
-7490
-1410
-6670
3280
600
3800
740
3430
-5380
-5670
8080
6520
-3620
6250
2480
2620
-3750
870
-2880
6920
-7000
7650
-6980
-5070
7540
-7690
-6220
4270
-1740
5500
3060
3170
-1510
5250
8190
7060
-840
-4240
2520
-1200
4180
-7590
1890
-7440
3080
-6280
960
5440
-5410
5670
4980
7830
-5430
6650
4510
3530
4000
-3150
-4950
5340
440
4900
2100
5930
-6410
4340
-8060
-2280
-540
-4240
5280
5770
1810
-10
3400
-6180
570
1240
7930
-3760
-1050
-3870
-1070
-6950
-2030
6330
-3300
6300
5080
-70
-8120
-5620
-80
-2670
1970
8030
7740
-3380
3930
-4710
-4250
-2200
-7710
6610
-2560
2170
7210
-4320
3790
-3950
-6300
-4760
3960
3140
7320
-510
-4270
6070
-7730
1690
6870
5590
6570
-1280
-7010
-3640
7570
-2830
-1830
-2820
4200
630
-2850
120
-7650
-5110
6130
7960
-4260
-7390
940
440
5720
2290
6610
2510
3630
7630
1420
-3730
-1390
-5170
-2780
-4760
-180
-200
-8040
-1450
-7530
-7110
7010
7360
-3630
3010
-6960
6030
-5480
6650
6040
-6900
7720
6920
7180
-130
-4730
240
-2290
7700
-7650
-2660
-1440
-7790
5910
-1020
3650
-3790
-2370
-6520
-1230
7240
-3200
1200
-5280
6140
6730
7090
-1940
-1210
-7390
340
-3980
-90
-1660
-590
-8190
-5690
580
-3350
3530
-1230
6960
-600
-2870
-6670
-2970
-570
5100
-880
4390
-990
3280
-60
-1140
6500
-5150
-7440
-230
-1060
8130
7860
-6380
7950
4800
3020
-5050
-2310
-6590
-6040
-5970
-5580
1840
-2840
-2950
4540
-4640
7990
-2580
3840
-6800
-3990
3960
700
-7090
5350
-7730
-6390
890
5410
4520
-7490
-7670
-2690
2690
5460
2010
6510
3310
-7000
-1850
2210
7930
2780
3840
5920
4190
6700
-4390
-7530
4390
7120
7340
1580
-4070
-80
-390
-6150
4080
5720
-5430
470
1920
-5550
-570
1480
-110
-5360
4060
-7840
-1640
6410
4990
-6390
-2610
-8070
2280
2230
-4290
4870
1140
-370
-1290
1280
-5370
-710
7710
-1910
1650
4700
-5240
6830
-7140
7590
1080
-6880
-2020
2140
-6680
-4180
-740
-1240
5230
1580
3910
3030
340
-2770
5130
6890
-1020
2080
-8110
7740
-4000
-3590
4940
-4540
1940
5120
-7940
-4830
4510
-4810
-2730
-7280
3720
-590
-990
-1760
7780
-2220
-5060
490
2560
-2900
-7530
3060
1060
-3340
7270
-2850
1190
490
1450
-430
-4790
7770
-6840
-1820
-7550
-6780
-2790
-2440
1950
5360
-950
-2450
-2990
5040
5220
5270
2340
-4910
-6330
5690
6430
6470
-920
-1490
-190
7350
5770
2370
-3240
1490
-1200
-4980
4790
7980
-3170
1090
140
-2110
-6780
7270
1890
-5960
-6590
-1940
-2120
-2900
-7770
-4490
-5990
3750
4000
230
1970
6410
300
-3570
-6660
200
-8180
6910
3080
-4000
-3130
6890
-4660
-1500
-7450
6430
6650
6330
3930
6490
5830
-2650
3520
-1380
2690
-1980
3510
-4020
-5880
7080
2860
1340
3070
-2750
3740
-6890
1770
5380
-6420
750
470
-650
-1510
3970
1610
7540
-2150
-2190
7100
-5900
3560
3270
-3130
-3300
2770
4580
3090
2340
3770
-1670
-750
-7360
6810
8190
3620
1020
-6500
-280
2920
-3740
5210
7590
1190
-6930
-4330
-4320
4680
670
-3910
-2720
6210
-6850
5110
-5800
-5560
6040
-60
2250
-5030
7490
620
5830
7920
-6150
3610
-6690
7220
-1660
2060
870
7820
3610
3020
5940
3590
-3050
50
7460
-3350
5850
-3640
260
5570
-6290
4080
-720
-6610
-2030
-3600
-4270
-1790
5320
6200
-5100
-7910
-4060
930
-5240
-3220
-5510
-8070
3090
-3270
820
-7510
4150
-2710
3880
-6380
-7220
-6730
4020
-3870
-710
5730
-7160
-5860
6520
-6230
-1540
4060
5710
-1170
1000
3940
-150
6520
3530
-260
5960
2590
-6410
-160
-1630
7950
6030
-250
-1000
4270
3030
-1010
3320
3610
7450
-3460
-2590
3090
-920
-700
2970
680
4190
-7150
4040
5020
-3310
1190
-3040
-4540
-4280
-340
1700
-1440
-5970
150
-5220
-7750
-3670
-1320
-4310
-4070
-2900
-2860
-4840
-5580
-1840
5500
1860
-4480
5010
-6790
-6010
-5280
-3480
8000
-5780
-5620
4690
-1010
-3790
3750
-6310
-6250
4550
8090
-630
-270
-1030
1530
3250
-7680
-5560
2120
210
-6720
980
3310
-4380
-6190
5770
-7610
3990
-6120
-5470
1020
7500
-3880
-1450
3950
-200
410
6280
2050
-5040
940
-1160
3160
-3800
2580
-1400
6450
2510
7140
-3870
-6730
6690
-5240
-7370
-1550
-5320
1040
4530
3210
-4240
-360
-7670
1160
4400
7310
5330
-5600
-6190
-4400
-2350
-400
4830
6130
-1720
-7230
7710
-1510
850
-4230
-5950
8010
-7440
-3910
-3670
2470
5240
-3670
-4010
140
-7420
2100
-1320
-5450
-990
3380
2340
-4710
-20
5410
-5740
-3510
-1930
1120
3160
7500
480
-4520
4810
-7350
7740
2920
350
-7070
2160
7120
-5800
-1830
-7040
1870
-160
6580
2470
-2190
1900
1760
4010
740
-4220
-7390
120
-840
-4420
-4460
5430
2280
0
-1930
3030
-1690
-3610
860
-90
1950
2060
460
1170
4090
7490
7560
6090
4580
-1920
-4210
7480
1400
5460
-2150
7180
-6300
-7260
1760
180
6790
1970
-4880
-350
6620
6300
4680
-4790
-2850
-2870
4430
5580
5660
-1760
-2750
-4720
-1820
-340
-1360
7660
-2610
-5210
4980
5060
-6640
5040
4240
-670
-3130
-3660
910
4590
4620
-6650
-7500
2890
6140
-1870
6230
-6340
-7540
5770
-4930
6170
2780
1440
-7380
1100
-7370
-1970
7550
1320
-5730
-450
4360
3750
-3590
5060
-4590
-4000
6800
4090
-7700
-500
-1490
2160
-6710
-7430
-380
3320
-8080
1910
-2740
-2280
6400
5710
5250
6440
1210
6570
-4770
-2200
-160
5000
5750
4790
-7030
-370
-2630
8040
-7090
-2360
-5860
-6950
1420
4190
3390
-3250
-2410
-6380
4050
4940
-3870
2260
6070
2660
-2960
-7770
-3760
2120
3230
4750
-2210
-3960
-3300
3100
-7740
-5120
5330
-5300
4620
-3360
-4400
-5120
-2670
-4180
280
6370
-850
5160
-1690
3750
6820
7020
-3390
3650
1780
-4380
-1190
5780
4300
7010
4030
-3710
5110
5960
7610
-1780
-6970
6970
-630
5570
-880
6350
-7060
-6780
5820
-7730
-2290
380
7420
-2920
-2540
6930
-210
1330
7710
-4760
2420
-5320
6610
5830
-2340
260
2420
-1000
2610
-8110
2290
4310
4600
-7550
7080
5670
370
-3650
7950
-5420
7010
-4380
6150
6440
7670
-4630
-1030
5030
-3010
-4160
3360
-7770
-320
-5300
1080
-5170
-360
-3490
7230
-5230
2990
5280
2200
-6730
-4460
-2160
130
-5340
2700
-1450
-2120
7580
-770
-6140
1050
4060
-6190
-3970
-7910
-4910
5510
4200
4650
-5940
7040
5940
7600
6050
4410
4500
-5980
-5290
-7240
-4330
5190
5380
1730
-630
200
-3200
-4950
-5910
5000
-1990
5740
-4650
1960
-1170
6090
-2120
-2040
-1050
-5470
1450
-4340
3430
-720
8050
7560
-7930
-4520
6560
-4730
-7450
7450
6510
4120
-7810
-7520
2680
3950
2420
3130
-5910
-5720
-4130
560
-1010
-2980
-4870
3430
-7470
1230
6450
6790
-6660
-8030
1080
1590
2080
6350
7570
860
-10
-6290
5620
-4840
-2660
-6150
-3870
5610
5580
7480
720
4830
7030
-6760
-2260
-740
-3610
2210
3590
-6620
10
3050
5470
3350
2120
3250
6960
2070
-2140
-5320
6410
5080
-4540
1520
-2750
-1670
1200
-7750
-900
7310
-620
6290
4840
-6720
-7580
7590
5310
-2480
-2550
-2790
-4400
-3040
-5780
1980
-950
-1120
-4720
-7790
2650
-5270
330
-6370
5430
1470
3360
-2620
5380
-3630
-3000
-7790
-2270
-4440
2900
2520
-4820
-6170
7910
6960
3970
2860
-4460
5120
-4440
2520
-5190
-3560
-5890
-3850
-2840
3520
-2480
-2490
4090
-1780
-3190
-4570
-6130
-2380
-7140
5580
-2580
-3810
730
6060
6260
190
2580
6060
4410
1340
5000
7110
-610
-7490
-5010
3630
450
3780
-6350
-5020
-4950
-1480
-4430
5070
-7520
-2280
-2860
8060
-4000
-820
-5660
-8040
7820
5270
5500
770
2400
6230
1520
1230
7550
-6640
-3120
1520
-1150
7060
-260
-1130
3850
5260
-2010
-170
-2090
5280
6940
-6920
-4840
4490
-4860
-2950
-4890
1040
1290
240
-3340
-6780
-1730
-7670
-1890
1610
-5500
900
3040
-2260
-6630
5890
-490
290
4230
-6540
-5700
3520
2800
-1670
-50
5870
7690
-3850
-5880
-5100
-1470
6170
4050
4750
-3810
-5840
-190
4270
-8030
-5840
-5830
2990
-2540
2330
-6280
1360
4370
-5640
6310
-2380
-7220
-7150
3280
-2470
3300
3000
650
-1140
-2440
-640
1510
-1530
-6090
-8010
770
-4460
7320
7210
-7300
-970
5610
-5050
-230
-7270
-8110
4270
-540
-3640
-5190
4060
-6200
-2760
-2440
4300
-6030
3420
-5230
4550
-6320
7600
2540
-4940
5290
-7560
4080
-5820
5240
-7120
1290
1970
5390
-6440
-3700
1310
-3990
-5620
-880
6390
1200
610
-4850
-1340
80
4390
1190
-860
2690
5450
860
-7250
5910
6550
-5070
-950
640
5190
1310
-4130
5280
-510
6650
-2660
1800
-2740
-30
760
7290
-2080
7060
-7980
-290
7240
2300
2810
-350
6460
1260
-1280
-3700
-5840
-7410
980
-290
3120
-220
460
3790
-1040
-3050
-6350
-4950
6920
-6500
7070
5420
-3210
3840
3810
330
2120
-360
5590
3250
5060
-6300
6650
-450
-180
-6640
-1460
6590
-4540
-1000
-2630
-990
4880
-5760
-2210
8170
6510
-4680
7530
6050
-2490
6960
-6760
-7290
590
-1080
-400
-3510
-5470
-7380
7660
670
6030
7340
7880
1210
1130
1340
3630
1670
4730
-7710
110
-2730
6060
-7290
-6730
-3180
-2030
6870
-1830
-5870
-1260
2960
-5850
7230
2680
-3570
1100
-6770
4770
-1740
2120
-5140
-770
-6600
-4810
-3440
2580
-3240
-5880
-5150
2740
-3910
3910
-1960
-7700
8110
-570
510
-940
2750
-3600
-4650
4000
-2270
3110
6520
-5940
4370
-6070
-2540
-4040
3900
-6190
2940
-3140
4470
-3310
-2020
-7320
5910
-1330
-5940
-5420
-6180
2260
-8100
1830
1080
-3390
1370
5910
6780
1440
8010
-7990
330
7890
90
-5930
210
-1380
5500
3970
2390
-5360
7040
1820
2630
-6330
4240
3650
-3560
780
1850
1080
-6810
-5820
-5740
-1020
-1700
-2350
6220
2460
-6290
4120
-6010
-5110
2400
6370
-6610
2050
1330
-3830
3710
-6480
-1860
6430
4180
6500
-3100
-8190
-1090
2220
-2790
-1340
4230
-7100
7080
4180
-1240
7590
5980
4520
-5680
-7390
4520
-90
-2430
6240
-1330
7900
-5710
5240
-4000
4730
3960
-7130
5590
-7240
-7180
7370
-630
8070
-5930
7660
7600
960
-3130
240
980
3880
6120
-6780
-7570
3000
3830
-840
-3680
2210
3510
-4610
-8050
-7920
500
-4490
-6780
5180
-3630
4210
4580
5740
-350
6780
4280
-6140
5910
-2080
6240
-5520
4540
-540
3340
-6260
2700
-2800
-5090
2350
-700
-5940
7160
3750
-8180
5590
680
4920
-7760
-1150
-6490
1970
-1800
140
-6990
-3600
-6670
-1650
4690
-2490
-3890
530
8120
3600
-1570
-7200
4560
-7080
6470
4490
-1190
-3010
5740
640
5330
-7380
-4110
-1830
6140
580
500
3760
4510
-7360
2640
-5950
-1970
4350
3240
3910
-5120
-7230
6680
-3150
-3740
7230
-5430
3180
4130
3290
-7320
-2530
-7570
-1930
980
3870
2430
-7540
3600
4990
-980
-550
6580
-5310
6340
4690
-6440
-870
-5070
-4750
-3690
-5370
-3110
-100
2570
-4770
-7750
6640
-510
-4770
4690
6450
6870
-2620
3670
7320
6740
3270
-5890
-6420
-5120
4050
-3670
7130
3420
3650
-880
-6350
-3770
8170
700
310
-1970
-4260
-3570
-7960
-2610
2790
7900
-4330
-6190
6840
-1530
6610
7700
5120
-2400
-6630
70
2390
660
-1010
-2150
190
6240
-8180
-6520
3220
1720
2300
-2170
-4900
6350
2550
4840
490
6490
-3010
2700
2940
3020
-690
-4350
-2270
-2930
-1880
-5980
170
-4930
-1870
-3250
-3570
-1020
7730
-5720
5470
-3250
3570
-5830
5360
6090
-1610
370
3730
2540
2270
6940
4040
-8090
-3810
-4400
4820
6660
3270
2720
-80
-3790
-2630
-490
-7840
-6380
1670
8150
-2640
2470
6800
1550
-7350
390
4780
1200
-4300
6220
-7900
-5090
6100
1010
3820
-2210
240
1370
-3290
-5380
-30
2240
4720
1770
-8030
820
-780
8180
180
-5810
2380
5450
2890
-4480
-6350
7960
610
-4470
5160
-1140
970
6660
7810
-1360
5490
7660
3880
-6430
1230
-5800
7550
-7980
-1510
-450
-550
2510
5310
-3440
3100
4120
-2490
3910
-4590
-6940
-1940
7670
2070
2640
3150
-5130
140
-250
-7700
1670
-2960
1050
5590
-3770
1310
-430
6200
2050
6880
1090
-6820
3780
-4890
-7190
2140
7250
-6270
-4540
-6500
5440
6740
-6750
-1880
120
-8040
6750
-7380
1910
-5370
3410
-2850
510
2330
-2830
1300
-1870
-7030
-5500
-7670
1500
-2800
-5640
6580
7820
-130
-7440
1880
-5510
1080
-6660
7960
5420
-5700
7630
-6190
2310
-6230
3480
20
6090
-6040
4400
-4470
3450
770
3320
410
7440
4460
-4970
6870
6880
330
-3980
-6610
4230
2230
-4060
-1260
-710
6300
-2300
2370
-350
-1080
-6740
-2480
-6540
3290
6820
1230
2990
3090
2950
4070
-630
-5280
-3780
-2460
-2610
-7080
-2660
4230
-4420
-7950
-6870
-2890
1130
-7820
-6170
7820
1810
3540
-7980
1570
5210
-1470
2730
3090
-7770
-5470
1190
5480
7240
-4980
1770
-2510
5730
5510
-7450
670
410
-1040
-1160
-4660
-1430
-2310
-5990
-7560
-3110
-6080
-7990
-2500
-2480
-2800
-1670
150
6620
7560
1960
-1310
-7770
3270
1260
-4280
-4260
2770
-6350
-7290
-1150
4630
-8010
7290
3850
-4230
390
-5690
3200
-6070
4700
-6560
-5450
7100
-1270
100
-5870
-3270
3960
-860
-4420
-6580
4570
-2700
90
-440
-2850
-5510
-2970
1780
5090
6680
4900
3240
4220
-7700
-4790
810
-4490
-1130
1220
-5400
-3030
-5040
6490
3500
-7870
570
4330
6170
-7660
-900
-3710
-7730
6400
3500
-2430
-5320
4890
7120
3200
7250
-7630
7570
4090
-180
-1590
8170
0
5220
2370
5400
-5310
760
-3840
-510
7330
-1740
-5860
-130
-1190
3720
-80
-180
3390
-1350
5560
2610
5660
6800
-5950
-3850
2300
170
7230
-700
-50
3750
1230
-5360
7840
-2430
7490
-4080
-5750
7950
340
4200
6320
-360
1430
6180
-7560
-4090
-5980
-4750
-770
4910
6980
-1750
2710
2800
-7870
-1060
-2360
-1280
-5180
5670
-6250
-7290
-2950
-1420
4770
-8110
6510
1770
4540
-2170
4620
-1430
-350
3680
-4660
5150
40
-1880
-2450
-720
3510
1260
4180
2820
7990
3560
-7370
-5270
-250
-5200
5020
5270
-1610
-5980
-5460
-250
7360
-6990
-7260
-2420
6380
-1690
5620
-5200
-4000
-6030
-2650
-5760
-700
3490
-2660
1250
5090
-840
-3710
4970
4430
170
-7200
-1290
1600
7430
1860
-6800
570
-2350
-7640
7190
1100
-2980
2190
-7310
5910
-6050
8140
-7210
1920
-5860
-1580
-1880
-690
-6960
-210
-2830
-4870
-8170
6800
-1570
-6670
-3120
60
-2360
-320
-3360
-7230
500
600
6880
6530
-7600
-3030
4270
2820
-4000
7760
-5370
-400
6620
5510
2290
3300
1590
5490
780
-740
-6850
5270
-3690
-7160
-3360
3080
7120
-2460
1240
220
-4630
4850
-8120
-3470
5680
7630
6640
5600
40
6680
2320
-6410
-6390
6630
8130
-5860
-2030
1180
3590
-6700
-2200
-600
-1930
4200
-5780
-3960
5370
2420
4740
6660
980
7390
2560
2590
-790
-6920
440
-4890
-2040
7800
-7110
5620
1510
7360
-7070
3350
-7710
-6800
5010
7500
4710
2490
4310
-1940
5900
5700
-7440
-270
2090
-5280
-2760
-5910
-3090
1550
7810
470
3120
6650
3500
-2100
4950
6970
-1400
1310
7830
-2250
5430
-1620
2170
3240
-7570
-8130
2870
-2420
6870
2130
7950
-4010
-10
4250
2270
710
-4370
-5090
7320
-6810
-1640
4490
5950
-2970
-3480
-7940
-8090
990
-2550
7700
960
-3230
3620
3950
-4550
6220
-2670
-6730
-1840
-5770
7840
-5600
-7000
6690
-2560
-980
2790
4150
-1210
-5520
-6530
-5070
5890
840
6050
5970
-480
5500
-6300
2700
-5570
5250
750
-1790
870
4600
-7750
-7240
-5890
-6980
6590
5630
7280
-5390
7010
-2620
-2590
6310
1930
-7250
-1890
-1110
5630
7710
-2570
2700
1870
5740
-4920
-4490
3110
-4350
4150
4350
7860
-4900
-4460
980
4440
-2260
-3330
-7620
-5610
-6180
-7350
-7690
-3320
7660
-5150
-2740
6520
-140
-3140
6940
-6950
7910
-5420
-5270
-7120
-7010
4830
800
-7470
-2440
5320
1640
7660
2010
-1400
30
5310
-3600
-1640
-7480
-7430
70
-1040
2660
2380
-7480
-3390
2690
4130
-2030
-3130
-3640
7190
4390
2970
-4680
-2400
-5620
5820
980
-2640
7590
-3430
7770
6050
-2520
-5070
-160
5420
-4870
1550
2570
5530
-120
5700
-7680
-2760
5170
-540
-8070
820
-4330
-6950
-8130
5390
-4660
-6040
-1230
-5240
2610
-2370
-4850
-110
960
-3910
1380
1260
7720
-5720
-640
2470
-4330
6080
2740
4680
-1410
880
-7030
3520
-5120
-3890
5910
-880
-700
6750
-4830
-1380
-1150
-3920
60
-8110
7280
5970
-4890
1280
6010
-7440
-7840
5260
4750
-6620
-5100
6830
-6500
-7850
-5470
6570
-8080
-4990
-2280
7910
-5980
-3570
-4250
-2200
3460
3040
-370
7320
-7350
-6450
3670
6630
6260
3640
290
400
-1580
-370
2360
-6360
-7160
2440
7940
6210
3840
250
-5000
-60
-5880
4530
-80
3690
6750
-5670
-5640
6980
4000
3040
6180
4210
6840
-4780
4430
2890
5640
6740
5790
6730
1560
2830
5440
5780
-7550
-7670
4770
40
-800
-7020
7060
-5880
-5690
2110
-3370
-1560
-7560
1940
970
-6390
-8200
-5470
1090
8170
-5000
-2800
-4920
3810
-7890
-4890
-4990
7810
-4370
-1470
7200
5970
-2490
0
5130
3270
-770
3020
3270
-4820
7030
1950
1180
-6610
7220
1120
100
3000
3650
-4660
7100
3840
-5060
3000
-4660
3110
870
3240
120
-900
-4930
1920
160
-990
-8000
-4690
-5580
7810
-5700
7530
-1490
-2960
1730
-1940
7820
-3320
-4440
-2300
-500
-570
6610
3460
-1710
2520
2760
6430
330
-3160
-450
-3880
-5980
7470
-4940
4490
-2760
-3840
6860
7500
-3700
-1740
-3110
2310
900
840
-2600
3310
3400
5550
-6170
-2720
-2790
-7050
950
1100
7020
6020
-3090
210
-3970
7470
3630
-1840
3200
-4010
-460
5850
7220
6790
3150
-2860
-3840
-2880
7220
6870
-7540
-5600
-30
5020
1260
7310
8110
-1630
-4040
-7000
6380
6090
2910
-1650
4760
7680
-6480
6980
2900
5740
7010
680
7560
-2270
70
3510
-5420
-4890
-100
-6790
5100
-760
7080
7160
-2920
-5270
5780
7210
1030
-7420
7140
7120
2300
6720
6120
3300
-8090
-3050
-5000
6430
5450
190
7790
-5410
-6310
1600
4130
120
-5510
-780
-4510
-2020
4860
-2910
-2600
-580
-940
-8080
-5430
7860
-2260
3010
-60
-5490
1040
-2110
7500
3910
-30
-4030
-1480
4580
7520
8190
-3270
920
7880
-6430
-7770
-7260
3190
-2060
-280
4250
4790
7780
-1480
7000
1370
2460
1480
2350
3000
2010
-820
1910
-3310
620
2760
5150
-5590
2170
850
2130
-6660
-5750
-6370
-6840
5080
1890
6530
6790
-2820
3030
3390
860
3420
190
-1610
-5400
3180
2100
-4920
-1760
-7930
3130
2190
8000
-8030
-2940
1710
4080
-2700
-4450
630
1290
-240
4650
4330
-7150
-7030
-6370
630
-2960
-6350
7800
3470
-2470
-2360
-3290
2730
-4070
640
2720
-4460
5150
-1470
-7700
200
-300
-3620
1760
-650
-1760
6260
6780
2380
7680
1150
5450
-2940
-4730
-6600
1030
4560
-7530
3230
2860
930
-2650
7720
7160
5550
8100
-6690
-1400
2650
6030
-2640
-4880
-770
2130
-4820
-6820
6620
-7690
5990
-6910
-6000
4070
7280
-5200
5570
7170
-5220
-1820
5310
2910
-4830
-2520
-3390
8060
1260
7540
-3260
3280
6810
-4880
6840
210
-2820
-7320
7860
-3810
-4210
-3320
650
-4250
-7360
1790
5040
2820
2110
6990
-4750
6400
3540
1080
280
1290
4590
7590
4020
-3100
-4790
3910
5970
-5180
220
-2710
7930
6340
6490
-2860
-7260
-2780
-1920
2570
-6450
250
7670
-5180
1060
-2040
4200
-3230
-5760
-3050
2530
-7260
2140
-760
3920
6680
1810
4470
-5780
-1190
-5470
6420
-4770
-2030
6710
1490
-1900
-710
-5690
-4680
-8090
-3840
3630
-5580
-7670
5040
-2030
6590
-4240
-1730
1950
-1270
4930
1100
7510
7290
3890
-2030
-5660
6250
-2500
-4680
-390
-4810
1020
5210
-2120
2610
1220
-4810
-2370
3240
980
7320
-4110
-3210
1500
-4510
-3170
-4870
-2740
-2880
3170
2450
-7900
7010
7370
-680
-7270
-1230
6990
-2850
5660
-2270
-250
6390
-3970
4020
-4870
1320
-4060
-5600
80
5870
-2900
4680
7040
-2290
-5950
-3870
7490
-1530
7410
-5360
-6090
-7630
-4100
-3340
-950
-4140
6600
-5020
-5000
5210
2100
-8100
5490
610
2610
6620
-150
-1600
-3490
7940
-1350
5630
-6450
-5480
1070
7870
6500
-2080
-3070
8030
1060
-7410
520
-7920
7800
1830
7450
-2430
3780
-720
3820
3320
-4100
1840
-3950
-160
-3060
-4270
-7340
2570
-4840
-470
7960
1590
-6310
1680
-7510
6600
-5070
-6230
8050
-2240
7300
-7630
900
660
8140
-3410
5000
-6350
-2830
2970
-7760
-7290
-2660
6020
5020
-2430
4800
-110
-1800
1430
-890
1960
-6820
320
6000
-1630
7440
3940
-6180
-3560
-4980
660
-5470
4680
-4830
3020
2650
7080
170
-4430
-340
-5170
-4530
5390
2350
-4070
-7330
2140
5110
1770
6800
1090
-7030
4610
1190
420
-5230
-3320
-930
7340
3970
6970
-350
-4020
-2640
-3070
5930
-3940
-5340
-5020
1980
-1580
720
7810
-6870
4640
3320
-1380
-6540
-560
6080
6500
-2280
-5760
-4210
8060
6570
-6120
-3460
5520
4520
3670
3970
340
-6540
5580
-5250
-830
3490
-8070
-4850
1980
-5960
-540
-2380
5200
6190
-2240
-5500
2660
-480
2330
-6340
-1410
-6880
-6080
-2800
-540
-830
-6480
-7780
3420
3180
1450
6180
-150
-550
5770
7850
-5130
-4190
-2340
3660
-6270
-4880
5950
8180
4820
5890
-2060
2760
-2650
1770
3930
-2790
3230
-7300
-2310
-5620
-6020
2950
3350
-7350
6530
-2440
1800
-3750
-6700
-6560
5170
-3750
-2510
-7460
3080
3310
-3530
-30
-7410
1300
-2170
7320
-60
-6290
340
-3420
4020
1440
3870
7200
4960
-7490
-6310
-3730
-4890
-7410
-2280
4210
-4320
-3150
-5840
250
440
-3420
320
-5360
-6570
1140
-2060
2560
-3120
-7240
4810
-4220
-8120
3470
-8040
2450
1020
5710
-2450
-5310
-3390
7430
-3370
2770
5510
-4670
3900
-1060
6590
3210
-2030
-2150
6800
-3310
-6940
1400
8040
7000
1710
400
-5800
7950
-8050
2350
-650
-4680
5070
-1350
8120
4510
-1840
-5300
-1570
-4620
-5020
-7770
-4240
-4810
-4170
-5130
-3990
1130
5710
6330
-2060
4190
5540
2580
5770
-5730
-1680
7230
-5550
-7130
4610
1540
-7800
-7500
-2890
-4370
-5490
6120
4430
6030
-5520
-7080
7940
4350
7490
-1860
-5430
-2200
240
-6890
-1410
6060
-5840
-1630
-4810
-3930
5450
5000
1040
2710
5400
-7930
2260
-1040
-1170
7670
-5710
2710
6310
-7620
-7010
-5670
5640
6540
8090
3230
-7530
-6800
6300
-5610
-620
-680
-5970
-1770
-3150
-450
-5330
5150
-8000
-6570
-2720
-4530
-2220
-4410
-7630
-4010
-770
20
1210
-730
950
1660
340
4200
1870
1510
800
-2940
4810
330
-8040
3720
1350
2930
1160
-2360
-1680
-1330
1690
-6050
-4720
-4530
-6430
8110
-5680
-7540
-8040
-5010
5650
-3180
1350
6210
-6970
7310
-7920
-1320
4770
-8170
6470
5390
430
-6240
4990
4360
2880
5320
-6640
-400
2610
-2460
-7360
2090
6120
3570
1960
5740
240
-4670
2660
7160
2730
6040
3680
-2020
-2050
820
-950
-7310
660
7130
930
-880
-3520
-7800
-2570
4510
-4310
-4740
1460
-6340
-1510
5990
1460
6220
-3960
8150
7770
-2240
4800
-1490
-240
4660
2500
2340
1180
1680
-5050
-3720
-1380
4440
2450
7430
2360
-980
2370
1580
-4170
-5270
6730
4130
-7470
-5370
1800
-2510
6510
6570
530
180
3750
-190
-6810
-2100
6060
7350
6680
4450
850
-5100
1620
6540
-3810
3080
6370
-620
-410
5740
-1690
-1470
-5200
6060
-6240
-6270
-6680
620
640
-2050
5620
-590
3930
260
5200
-7580
5170
6780
7970
-4160
1190
-2760
-7610
8160
-7980
1790
4110
380
7610
3960
-3420
4450
-8030
-1330
3240
-7790
-3010
2500
5830
1420
-3340
140
-2460
2660
-1270
-1290
-4190
7330
-3530
7490
-4930
-5470
220
-4060
-2680
7190
-6760
-7980
-2330
130
4570
-3260
-5540
4950
-4680
-7010
3200
3630
-4580
4580
-6200
6770
7670
-7350
5670
3990
2050
-5200
7740
5550
570
6160
1350
-7830
1560
-6480
-2180
-1300
-3030
-3940
4650
-1860
-1340
-8090
8130
-3060
-5510
-7590
4910
6510
-430
730
3600
-2600
5200
1020
-1290
4210
5770
7830
1950
190
-3870
830
-4420
-1620
7320
7320
5950
-7140
-3190
2930
-3180
-5790
5450
3610
270
4420
4900
-4310
-4620
-120
3010
-5720
3270
-4620
1240
-1640
-750
7720
-2190
4280
-5340
2470
-7240
-6920
-1770
-2360
960
-4660
-8130
3620
-2870
4550
-4890
6500
-3550
-5160
8130
-2670
4450
6190
4520
4790
-1730
3760
-2800
-3210
-7440
6390
2910
7030
-430
7700
370
-840
-3610
2760
-720
4560
-4720
-450
390
-4100
-1510
4570
5260
7940
-5220
500
-4340
1940
-830
4340
-2870
1350
-3770
-2420
6160
7990
-5430
-6260
-4290
-7970
-550
-7040
5380
7540
3850
-5130
870
-5470
-410
1840
5510
-7680
-7580
-830
-5750
-7530
7290
-1230
-1090
5650
1550
5280
3280
-980
-3730
-8180
5740
-3230
-160
3030
-7670
4160
6280
-3670
-6770
4590
-7950
1320
5120
1950
-1280
-1660
4490
-5060
-3040
-5530
-8190
3550
2590
7350
900
-7060
500
-7220
-3770
-3070
-6600
-1820
-450
2840
-3080
-4730
-7650
-4590
-6660
-540
-5030
3230
-4850
1400
-3380
7490
700
-8010
2280
5010
6450
-5840
3850
-5350
5450
-5500
-3980
140
-7450
-2320
2250
-7510
-2610
-2560
-4530
3190
-5320
-5390
-6810
-7840
2590
5040
680
7860
6450
-4480
-6660
5860
260
6950
-7380
5790
5890
6810
7430
3980
-1100
-8160
1780
-3770
-1450
6110
-3430
-7100
7350
-3690
-4270
-180
2780
-1850
-5730
-4960
